
\data\
ngram 1=4551
ngram 2=10363
ngram 3=891

\1-grams:
-4.198712	"	-0.07755557
-4.198712	"ASP	-0.08478913
-4.198712	"Cozmo"	-0.04633292
-4.198712	"Custom	-0.08478913
-4.198712	"Data-Driven	-0.08478913
-4.198712	"Do-it-Your-Self"	-0.08462419
-3.897682	"Elektronische	-0.1905989
-4.198712	"Entwicklung	-0.07311737
-4.198712	"Evaluation	-0.06809099
-4.198712	"Fall	-0.08478913
-4.198712	"Feature	-0.08476165
-4.198712	"Generative	-0.08476165
-4.198712	"Grosser	-0.08478913
-4.198712	"IFS	-0.08478913
-4.198712	"Konzeption	-0.07424526
-4.198712	"Konzeption,	-0.08418404
-4.198712	"Levelgraph"-Verfahrens	-0.04633292
-4.198712	"Limesurvey"	-0.04633292
-4.198712	"Loss	-0.08478913
-4.198712	"Mobile	-0.08478913
-4.198712	"NAO"	-0.06372762
-4.198712	"Opus"	-0.07311737
-4.198712	"Pepper"	-0.08451419
-4.198712	"Photo	-0.08478913
-4.198712	"QlikView"	-0.04633292
-4.198712	"Sales"	-0.04633292
-4.198712	"Virtueller	-0.08478913
-4.198712	"Wissensmanagement"	-0.08412899
-4.198712	"Zahlungsverkehr	-0.08462419
-4.198712	"Zentrale	-0.08478913
-3.596652	&	-0.1319401
-4.198712	(1627)	-0.04633292
-4.198712	(ARSG)	-0.07986899
-4.198712	(Arbeitstitel)	-0.04633292
-4.198712	(BPM)	-0.08294371
-4.198712	(EU-DSGVO)	-0.04633292
-4.198712	(Faktorbuchhaltung)	-0.04633292
-4.198712	(Farbvarianten)	-0.06809099
-4.198712	(ITIL)	-0.08478913
-4.198712	(ITSM)	-0.06372762
-4.198712	(OSAs)	-0.08106268
-4.198712	(Publishing)	-0.07311737
-4.198712	(RNN).	-0.04633292
-4.198712	(Schwerpunkt	-0.08478913
-4.198712	(Vorschlagssystem)	-0.08039685
-4.198712	(XAI),	-0.07986899
-4.198712	(nicht-)linearen	-0.08478913
-4.198712	(~1610).	-0.04633292
-2.491142	-	-0.0724159
-4.198712	-implementierung	-0.07424526
-3.420561	.NET	-0.07817471
-3.897682	.NET-Framework	-0.07556681
-4.198712	.NET-Komponenten	-0.07755557
-4.198712	.NET-Umfeld	-0.07986899
-3.897682	/	-0.1906264
-4.198712	1.2	-0.08294371
-4.198712	10.	-0.08478913
-4.198712	1:	-0.08473416
-4.198712	2	-0.07311737
-4.198712	2-Faktor-Authentisierung	-0.07311737
-3.499742	2.0	-0.03738245
-4.198712	2012	-0.04633292
-4.198712	2014	-0.04633292
-4.198712	2016	-0.04633292
-4.198712	2017/746	-0.08122899
-4.198712	2:	-0.07735991
-3.721591	2D	-0.08465168
-4.198712	2D-/3D-CAD-Daten	-0.04633292
-4.198712	2D-Kamera	-0.04633292
-4.198712	2D-Panoramabildern	-0.04633292
-4.198712	2D/3D-Visualisierungskomponente	-0.07559487
-4.198712	2d-Features	-0.08379854
-4.198712	2shot"	-0.04633292
-4.198712	3	-0.04633292
-4.198712	3-Tier-Architektur	-0.08294371
-4.198712	33000	-0.08478913
-4.198712	360°	-0.08478913
-4.198712	360°-Aufnahmen	-0.04633292
-3.353614	3D	-0.08456919
-3.897682	3D-Ansicht	-0.1789822
-4.198712	3D-Bio-Drucker	-0.0845417
-4.198712	3D-Druck	-0.08476165
-4.198712	3D-Druck-Software	-0.04633292
-4.198712	3D-Druckverfahrens	-0.04633292
-4.198712	3D-Engine	-0.04633292
-4.198712	3D-Hinderniskarte	-0.08122899
-4.198712	3D-Modelierung	-0.06809099
-4.198712	3D-Multitouchoberfläche	-0.08122899
-4.198712	3D-Objekt-Erkennung	-0.08379854
-3.897682	3D-Szenen	-0.0831093
-3.295622	4.0	-0.128748
-4.198712	4.0.	-0.04633292
-4.198712	4.0:	-0.08478913
-3.897682	6	-0.07054046
-4.198712	62366	-0.04633292
-3.198712	:	-0.07153337
-1.071607	</s>
-99	<s>	-0.3958358
-4.198712	?IBM	-0.0845692
-4.198712	?Rechnungsschreibung?	-0.08258473
-3.721591	A	-0.1523708
-4.198712	AAC-basierte	-0.08478913
-4.198712	ABC	-0.08462419
-4.198712	ABS-Software	-0.08122899
-4.198712	AFDX-Karten	-0.07755557
-2.818501	AG	-0.753988
-4.198712	AG,	-0.08478913
-3.897682	AG.	-0.1521977
-4.198712	AG:	-0.08478913
-4.198712	AIR	-0.04633292
-3.897682	ALM	-0.04606257
-4.198712	ALM-Prozesstemplates	-0.07755557
-3.596652	API	-0.1133268
-4.198712	API-Management	-0.08470667
-4.198712	APIs	-0.07424526
-4.198712	ARIS,	-0.08478913
-4.198712	ARIS-Skripten	-0.07986899
-4.198712	ARKit	-0.04633292
-3.499742	ASP.NET	-0.009139091
-3.897682	AUTOSAR	-0.0417442
-4.198712	AUTOSAR-Modellen	-0.04633292
-4.198712	AUTOSAR-Werkzeugen	-0.04633292
-3.897682	Abbilden	-0.06823379
-4.198712	Abbildung	-0.06372762
-4.198712	Abbildungsmöglichkeiten	-0.07755557
-4.198712	Abfrage	-0.06809099
-4.198712	Abfragen	-0.04633292
-4.198712	Abfrageoptimierung	-0.06809099
-4.198712	Abfragesprache	-0.07311737
-4.198712	Abgleich	-0.06372762
-4.198712	Abhängigkeit	-0.06809099
-3.596652	Abhängigkeiten	-0.08770974
-4.198712	Abhängigkeitsanalyse	-0.07755557
-4.198712	Ableitung	-0.06809099
-4.198712	Abläufe	-0.04633292
-3.897682	Ablösung	-0.06004801
-4.198712	Abnahmetests	-0.0845692
-4.198712	Abrechnung	-0.06372762
-4.198712	Absatzzahlen	-0.08448669
-4.198712	Abschattungsverlusten	-0.04633292
-3.897682	Absicherung	-0.1739558
-4.198712	Absolventen	-0.08258473
-4.198712	Abspielen	-0.06809099
-4.198712	Abstractive	-0.08476165
-4.198712	Abstraktionsschicht	-0.04633292
-4.198712	Abteilung	-0.08473416
-3.897682	Access	-0.04576198
-4.198712	Access-Managements	-0.07311737
-4.198712	Ad-hoc-Routing-Protokolle	-0.07559487
-4.198712	Adabas:	-0.08423908
-4.198712	Adaption	-0.07424526
-3.897682	Adaptive	-0.0845967
-4.198712	Adaptive-Case-Management-Szenarien	-0.04633292
-4.198712	Administration	-0.08473416
-4.198712	Administrationsbereichs	-0.07311737
-4.198712	Administrationsrechte	-0.08470667
-4.198712	Adobe	-0.08478913
-4.198712	Adoption	-0.08478913
-4.198712	Advanced	-0.08440417
-3.897682	Adversarial	-0.08456921
-4.198712	Aftersales	-0.08443168
-4.198712	Agenten	-0.07311737
-4.198712	Agentenbasierte	-0.08445919
-3.897682	Agile	-0.0845967
-3.897682	Agiles	-0.08470668
-3.897682	Agilität	-0.04150134
-4.198712	Ajax	-0.04633292
-4.198712	Akten	-0.07755557
-4.198712	Aktiengesellschaft	-0.04633292
-4.198712	Aktivitäten	-0.08039685
-4.198712	Aktometern	-0.07986899
-3.897682	Aktuelle	-0.08473417
-4.198712	Akzeptanztests	-0.08039685
-3.499742	Algorithmen	-0.009171806
-4.198712	Algorithmic	-0.08478913
-4.198712	Algorithms	-0.04633292
-3.897682	Algorithmus	-0.03839291
-4.198712	Allgemeinen	-0.06372762
-4.198712	Alltag	-0.04633292
-3.897682	Alternative	-0.0831093
-4.198712	Alternativen	-0.04633292
-4.198712	Alumni	-0.08399133
-3.721591	Amazon	-0.08412898
-4.198712	Ameisenalgorithmen	-0.07311737
-2.173406	Analyse	-0.8180475
-3.119531	Analyse,	-0.4953647
-4.198712	Analyse-Dashboards	-0.08122899
-4.198712	Analyse-Frontend-Systeme.	-0.04633292
-4.198712	Analysesoftware	-0.07559487
-4.198712	Analysesystems	-0.07559487
-4.198712	Analysetool	-0.04633292
-4.198712	Analysieren	-0.06372762
-3.897682	Analysis	-0.04567176
-4.198712	Analysis,	-0.08478913
-3.721591	Analytics	-0.04476853
-4.198712	Anbetracht	-0.06809099
-3.897682	Anbietern	-0.07308915
-3.084769	Anbindung	-0.2582147
-3.084769	Android	-0.04734894
-4.198712	Android-Anwendung	-0.04633292
-3.596652	Android-App	-0.1094133
-4.198712	Android-Applikationen"	-0.04633292
-4.198712	Android-Betriebssystem	-0.07311737
-4.198712	Android-Clients	-0.07559487
-4.198712	Android-Geräten	-0.04633292
-4.198712	Android-Smartwatches	-0.04633292
-3.24447	Anforderungen	-0.1310923
-3.897682	Anforderungsanalyse	-0.1884495
-4.198712	Anforderungsmanagement	-0.07755557
-4.198712	Anforderungsmanagements	-0.06372762
-4.198712	Anfragenverteilung	-0.04633292
-4.198712	Anfrageprozesses	-0.07986899
-4.198712	Angeboten	-0.04633292
-3.721591	Angebotserstellung	-0.06849067
-4.198712	Angebotsunterstützung	-0.07311737
-4.198712	Angriffen	-0.08122899
-3.721591	Angular	-0.04564167
-4.198712	Angular,	-0.08478913
-3.897682	AngularJS	-0.06358335
-4.198712	Anhang	-0.06809099
-4.198712	Animations-Tools	-0.07311737
-3.596652	Anlagen	-0.2437361
-4.198712	Anlagenbedienern	-0.08379854
-4.198712	Anlagenzuständen	-0.08462419
-4.198712	Annotation	-0.06809099
-4.198712	Annotationen	-0.04633292
-4.198712	Annäherung	-0.07209976
-3.897682	Anomaliedetektion	-0.07306091
-4.198712	Anomaly	-0.08473416
-3.499742	Anonymisierung	-0.6861653
-4.198712	Anpassung	-0.07424526
-4.198712	Anpassungen	-0.07311737
-4.198712	Anreizmechaniken	-0.07755557
-3.596652	Ansatz	-0.1695058
-4.198712	Ansatzes	-0.07311737
-4.198712	Ansicht	-0.07311737
-4.198712	Ansteuereinheit	-0.07311737
-4.198712	Ansteuerung	-0.08476165
-4.198712	Answer	-0.08478913
-3.721591	Ansätze	-0.01749863
-4.198712	Ansätzen	-0.07311737
-3.897682	Anton	-0.1906264
-4.198712	Antwortdaten	-0.08379854
-4.198712	Antworten	-0.06372762
-4.198712	Anweisung	-0.07755557
-4.198712	Anwendbarkeit	-0.06809099
-4.198712	Anwender	-0.04633292
-2.721591	Anwendung	-0.3038352
-3.157319	Anwendungen	-0.08242458
-4.198712	Anwendungs-Integrationsszenarien	-0.07311737
-4.198712	Anwendungsbereich	-0.07209976
-4.198712	Anwendungsfall	-0.07424526
-4.198712	Anwendungsfelder	-0.08473416
-4.198712	Anwendungsfällen	-0.08039685
-4.198712	Anwendungssoftware	-0.07311737
-4.198712	Anwendungssystems	-0.07559487
-4.198712	Anwendungstestergebnissen.	-0.04633292
-4.198712	Anwendungstestsystemen	-0.04633292
-4.198712	Anwendungsumgebung	-0.04633292
-4.198712	Anwendungsübergreifenden	-0.08467918
-3.596652	Anzeige	-0.7750393
-3.353614	Apache	-0.4043165
-2.994592	App	-0.4535537
-4.198712	App,	-0.07559487
-4.198712	App.	-0.04633292
-3.721591	Apple	-0.08456919
-4.198712	Appliance	-0.07311737
-4.198712	Applicability	-0.08374344
-3.24447	Application	-0.1134465
-4.198712	Application-Performance-Monitoring-Lösung	-0.08294371
-4.198712	Applications	-0.04633292
-4.198712	Applications"	-0.07209976
-2.919958	Applikation	-0.2545176
-3.420561	Applikationen	-0.3548767
-4.198712	Applikationsdeployments	-0.08294371
-4.198712	Applikationsserver-Architektur	-0.07311737
-4.198712	Applikationsserverumfeld	-0.04633292
-4.198712	Approaches	-0.08476165
-3.721591	Apps	-0.07159005
-3.420561	Arbeit	-0.4683261
-4.198712	Arbeiten	-0.04633292
-4.198712	Arbeiten:	-0.0845692
-4.198712	Arbeitsabläufen	-0.04633292
-4.198712	Arbeitsaufgaben	-0.08258473
-4.198712	Arbeitsmarkt"	-0.07209976
-4.198712	Arbeitsmotivation	-0.04633292
-4.198712	Arbeitsplatz	-0.08459669
-4.198712	Arbeitsplatzes	-0.07755557
-4.198712	ArchiMate®"	-0.04633292
-4.198712	Architecture	-0.08429412
-4.198712	Architekten	-0.06372762
-3.198712	Architektur	-0.07504137
-4.198712	Architekturanalyse	-0.08448669
-4.198712	Architekturanalysewerkzeugen	-0.04633292
-4.198712	Architekturbeschreibungssprache	-0.08478913
-3.897682	Architekturen	-0.04603252
-4.198712	Architekturkonzept	-0.06372762
-4.198712	Archiv	-0.04633292
-4.198712	Archivierungssystems	-0.08399133
-4.198712	Archivierungssystems,	-0.07559487
-4.198712	Archivsystems	-0.04633292
-4.198712	Arduino,	-0.08478913
-4.198712	Arithmetic	-0.08478913
-4.198712	Arithmetic"	-0.08478913
-3.721591	Art	-0.1138494
-4.198712	Artefakten	-0.06372762
-4.198712	Arthropoden	-0.04633292
-3.499742	Aspekte	-0.1066537
-4.198712	Assessments	-0.08478913
-3.897682	Asset	-0.1901589
-4.198712	Assistant	-0.04633292
-3.721591	Assistent	-0.1312777
-3.897682	Assistenten	-0.05404188
-4.198712	Assistenzanwendung	-0.07311737
-3.721591	Assistenzsystems	-0.1409516
-4.198712	Assoziationsanalyse	-0.07209976
-4.198712	Astras	-0.04633292
-4.198712	Asynchrones	-0.08478913
-4.198712	Atlassian	-0.08478913
-4.198712	Attlassian	-0.08478913
-3.897682	Audio	-0.06369878
-4.198712	Audio-Dateien	-0.08122899
-4.198712	Audiocodecs	-0.08478913
-4.198712	Audioerkennung	-0.07559487
-4.198712	Audiokonferenzanwendungen	-0.04633292
-4.198712	Audiosignal	-0.07424526
-4.198712	Audits	-0.07755557
-3.897682	Aufbau	-0.06225373
-3.499742	Aufbereitung	-0.183081
-4.198712	Aufgabenstellungen	-0.08379854
-4.198712	Aufnahme	-0.04633292
-4.198712	Aufnahmeplanung	-0.07755557
-3.897682	Aufruf	-0.1869275
-4.198712	Auftrag	-0.07209976
-3.897682	Auftragsabwicklung	-0.190434
-4.198712	Auftragserfassungssystems	-0.07311737
-4.198712	Auftragsmanagements	-0.07424526
-4.198712	Auftragsverarbeitern	-0.08385363
-4.198712	Auftragsverwaltung	-0.08258473
-4.198712	Auftritts	-0.07209976
-4.198712	Aufzeigen	-0.07209976
-3.295622	Augmented	-0.9539401
-4.198712	Augmented-Reality	-0.08473416
-4.198712	Augumented	-0.08451419
-4.198712	Aus-	-0.06372762
-3.721591	Ausarbeitung	-0.1276847
-4.198712	Ausbildungsbereich	-0.07209976
-4.198712	Ausdrucke	-0.06809099
-4.198712	Auseinandersetzung	-0.07986899
-4.198712	Ausfällen	-0.08478913
-4.198712	Ausführungsplanerstellung	-0.07311737
-4.198712	Ausgabestelle	-0.08478913
-4.198712	Ausgangsrechnungen	-0.08039685
-4.198712	Ausgewählte	-0.08467918
-4.198712	Auskunftsfähigkeit	-0.08106268
-4.198712	Auslagern	-0.08478913
-4.198712	Auslastungsanalysetool	-0.07755557
-3.596652	Auslesen	-0.09176219
-4.198712	Auslieferung	-0.06809099
-4.198712	Ausnutzung	-0.08478913
-4.198712	Ausrichtung	-0.04633292
-4.198712	Aussagekraft	-0.06809099
-3.596652	Austausch	-0.0460926
-3.198712	Auswahl	-0.6305262
-3.24447	Auswertung	-0.2446369
-3.897682	Auswertungen	-0.03839291
-4.198712	Auswertungsprogrammen	-0.07311737
-4.198712	Auswertungsprozesses	-0.07209976
-4.198712	Auswirkung	-0.07209976
-3.499742	Auswirkungen	-0.2056566
-3.897682	Authentifizierung	-0.02323704
-4.198712	Authentifizierungsanfragen	-0.08039685
-4.198712	Authentisierungsverfahrens	-0.08478913
-4.198712	Autokennzeichen	-0.07755557
-4.198712	Autokonfigurator	-0.07311737
-3.721591	Automaten	-0.06257204
-3.721591	Automatic	-0.08473416
-3.721591	Automation	-0.08269521
-4.198712	Automation:	-0.08189355
-4.198712	Automationswerkzeugen	-0.04633292
-3.295622	Automatische	-0.1073384
-3.420561	Automatisierte	-0.08089633
-4.198712	Automatisiertes	-0.08478913
-3.157319	Automatisierung	-0.3882363
-4.198712	Automatisierungsgeräte	-0.04633292
-4.198712	Automatisierungstechnik	-0.08478913
-4.198712	Automobil-	-0.06372762
-4.198712	Automobilhersteller	-0.04633292
-4.198712	Automobilsektor	-0.04633292
-3.499742	Automotive	-0.08467918
-4.198712	Automotive-HMI-Bedienelementen	-0.04633292
-4.198712	Automotiveumfeld	-0.04633292
-4.198712	Autonome	-0.08476165
-4.198712	Autoren	-0.06809099
-4.198712	Autorisierung	-0.07755557
-4.198712	Autorisierungs-	-0.06372762
-4.198712	Autorisierungskomponente	-0.04633292
-4.198712	Autorisierungssystems	-0.07311737
-4.198712	Autos	-0.07755557
-4.198712	Autoschlösser	-0.08448669
-4.198712	Autoteilegroßhandel	-0.08122899
-4.198712	Außenansicht	-0.04633292
-3.721591	Azure	-0.07975778
-4.198712	BACnet	-0.08476165
-4.198712	BAM/CEP	-0.07755557
-4.198712	BB84	-0.08473416
-4.198712	BCI	-0.08039685
-3.596652	BI	-0.09511559
-4.198712	BI-Ansatzes	-0.08478913
-4.198712	BI-Ansätzen	-0.07209976
-4.198712	BI-Applikation	-0.08294371
-4.198712	BI-Financial	-0.0845692
-4.198712	BI-Umfeld	-0.04633292
-4.198712	BMC	-0.08478913
-3.897682	BMW	-0.08476166
-4.198712	BOE	-0.06372762
-4.198712	BPMN	-0.08467918
-4.198712	BRDF-Parameter	-0.08122899
-3.897682	BW	-0.08434916
-4.198712	BYOD-Szenarien	-0.07755557
-4.198712	Babyartikel	-0.04633292
-4.198712	Back-End	-0.08459669
-4.198712	Backbone	-0.08473416
-4.198712	Backend	-0.06372762
-4.198712	Backend-as-a-Service	-0.08476165
-3.596652	Backends	-0.0776764
-4.198712	Backup-/Restore-Werkzeuges	-0.07311737
-4.198712	Backupmanagement	-0.08476165
-4.198712	Badeinrichtung	-0.04633292
-3.897682	Bahnplanung	-0.1789822
-4.198712	Bahnplanungsverfahren	-0.06372762
-4.198712	Bahnregulierung	-0.07311737
-4.198712	Balance	-0.08478913
-4.198712	Bank	-0.07559487
-4.198712	Banken	-0.08478913
-4.198712	Bankenbranche	-0.04633292
-4.198712	Bankensektor	-0.04633292
-3.897682	Bankenumfeld	-0.04479868
-4.198712	Bankkunden	-0.04633292
-4.198712	Bannererstellung	-0.08379854
-3.897682	Based	-0.08443169
-2.508516	Basis	-0.7958995
-4.198712	Basisbibliothek	-0.08377099
-4.198712	Batch	-0.08377099
-4.198712	Batch-Prozessen	-0.04633292
-4.198712	Batteriemanagementsystem	-0.07424526
-4.198712	Baubetriebe	-0.04633292
-4.198712	Baubranche	-0.04633292
-4.198712	Baugenehmigungen.	-0.08476165
-4.198712	Baugewerbe	-0.04633292
-4.198712	Bauteilinformationssystem	-0.07559487
-4.198712	Bauteilsammlung	-0.06809099
-4.198712	Bauwirtschaft	-0.08341269
-4.198712	Bayern	-0.04633292
-4.198712	Beamer	-0.08470667
-3.721591	Bearbeitung	-0.0460926
-4.198712	Bearbeitungsmöglichkeiten	-0.08478913
-4.198712	Bedarfsberechnung	-0.06809099
-4.198712	Bedien-	-0.06372762
-4.198712	Bedienbarkeit	-0.07755557
-4.198712	Bedienkonzept	-0.06372762
-4.198712	Bedienoberfläche	-0.06372762
-4.198712	Bedienung	-0.06809099
-4.198712	Bedrohungsmeldungen	-0.08462419
-4.198712	Befragungen	-0.06372762
-4.198712	Befähigung	-0.07424526
-3.897682	Behandlung	-0.1739558
-4.198712	Behat	-0.04633292
-3.897682	Behavior	-0.08465169
-4.198712	Behinderung	-0.04633292
-4.198712	Behörden	-0.06372762
-2.385799	Beispiel	-0.7743303
-4.198712	Beispielanwendung	-0.07209976
-4.198712	Beispieldialogen	-0.08258473
-4.198712	Beispiels	-0.08478913
-4.198712	Beitrag	-0.07559487
-4.198712	Beiträge	-0.08039685
-4.198712	Bekanntwerden	-0.06809099
-4.198712	Beleuchtung	-0.06372762
-4.198712	Benachrichtigung	-0.08467918
-4.198712	Benutzer-Lifecycle-Prozesses	-0.07986899
-3.897682	Benutzerdaten	-0.1521977
-3.897682	Benutzerfreundliche	-0.06369878
-4.198712	Benutzerkennungen	-0.08415651
-3.721591	Benutzeroberfläche	-0.03244968
-3.721591	Benutzeroberflächen	-0.05226815
-3.499742	Benutzerschnittstelle	-0.1338755
-3.897682	Benutzersteuerung	-0.06857629
-4.198712	Benutzung	-0.06809099
-4.198712	Beobachtung	-0.08106268
-4.198712	Beratungsforen	-0.07986899
-4.198712	Beratungsgesellschaft	-0.07986899
-3.897682	Beratungsverläufen	-0.1521977
-3.353614	Berechnung	-0.04789406
-4.198712	Berechtigungskonzepts	-0.07311737
-4.198712	Berechtigungsmanagements	-0.07209976
-4.198712	Berechtigungsvergabe	-0.04633292
-3.052584	Bereich	-0.05416164
-3.897682	Bereichs	-0.07207146
-4.198712	Bereinigung	-0.08258473
-3.420561	Bereitstellung	-0.1788234
-4.198712	Bergwanderungen	-0.08478913
-4.198712	Berichten	-0.07559487
-4.198712	Berichtstools	-0.07986899
-4.198712	Berichtswesen	-0.07755557
-4.198712	Berichtswesens	-0.04633292
-3.084769	Berücksichtigung	-0.2551953
-4.198712	Beschaffungsprozess	-0.08258473
-4.198712	Beschaffungsprozesse	-0.07755557
-4.198712	Beschallungssystems	-0.04633292
-4.198712	Beschleunigung	-0.07209976
-3.897682	Beschreibung	-0.06369878
-4.198712	Beschreibung,	-0.0806189
-4.198712	Beschriftungskomponente	-0.07755557
-4.198712	Bespiel	-0.08106268
-3.897682	Best	-0.08476166
-4.198712	Bestellabbrüchen	-0.04633292
-4.198712	Bestelldaten	-0.08445919
-4.198712	Bestellprognosen	-0.07986899
-4.198712	Bestellprozess	-0.08448669
-4.198712	Bestellung	-0.06809099
-3.721591	Bestimmung	-0.0435311
-3.721591	Betrachtung	-0.05964044
-4.198712	Betreiben	-0.07311737
-3.721591	Betrieb	-0.04074151
-4.198712	Betriebsdatenerfassung	-0.08258473
-4.198712	Betriebsprüfungsrisikos	-0.08407393
-4.198712	Betroffenen	-0.04633292
-4.198712	Betrug	-0.08039685
-4.198712	Betrugsanzeigenerkennung	-0.04633292
-3.897682	Beurteilung	-0.06823379
-4.198712	Bewahrung	-0.06809099
-4.198712	Bewegung	-0.04633292
-4.198712	Bewegungsaufgaben	-0.07755557
-2.800772	Bewertung	-0.5854617
-4.198712	Beyond-Budgeting	-0.04633292
-4.198712	Bezahlen	-0.07755557
-4.198712	Beziehungsmanagementsoftware:	-0.08478913
-3.721591	Bezug	-0.1478113
-3.897682	Bibliothek	-0.03624673
-4.198712	Bibliotheksabhängigkeiten	-0.07755557
-3.420561	Big	-0.4471249
-4.198712	BigData-Technologien	-0.04633292
-4.198712	Bilddaten	-0.08122899
-4.198712	Bilddatenbank	-0.08122899
-4.198712	Bilderkennung	-0.07755557
-3.353614	Bildern	-0.1674445
-4.198712	Bildklassifikation	-0.08122899
-4.198712	Bildmanipulation	-0.07986899
-4.198712	Bildsequenzen	-0.06372762
-4.198712	Bildsysteme	-0.04633292
-4.198712	Bildsystemen	-0.04633292
-4.198712	Bildung	-0.06372762
-4.198712	Bildungsmaßnahmen	-0.07559487
-4.198712	Bildverarbeitung	-0.04633292
-4.198712	Bildverarbeitungsalgorithmik	-0.04633292
-4.198712	Bildverarbeitungsmethoden	-0.07311737
-4.198712	Bildverarbeitungsverfahren,	-0.08478913
-4.198712	Binärdaten	-0.08478913
-4.198712	Biometric	-0.08459669
-4.198712	BizTalk	-0.08451419
-4.198712	Blackbox-Test	-0.04633292
-4.198712	Blended	-0.08478913
-4.198712	Blickpunkt	-0.04633292
-4.198712	Blockchain	-0.08473416
-4.198712	Blockchaintechnologie	-0.07755557
-4.198712	Blogger	-0.06372762
-4.198712	Bluetooth-gestützten	-0.08429412
-4.198712	Board	-0.07755557
-4.198712	Bordnetzentwicklung	-0.04633292
-3.897682	Bosch	-0.08432164
-4.198712	Bosch-Viewer	-0.04633292
-4.198712	Bots	-0.07559487
-4.198712	Bower	-0.06372762
-4.198712	Brailleschriftzügen	-0.04633292
-4.198712	Brettspielanleitungen	-0.04633292
-4.198712	Brettspielen	-0.04633292
-4.198712	Brettspiels	-0.07559487
-4.198712	Brief-	-0.06372762
-3.897682	Browser	-0.04092401
-4.198712	Browsergames	-0.07986899
-4.198712	Browsers	-0.04633292
-4.198712	Buchbranche	-0.04633292
-4.198712	Buchführung	-0.07755557
-4.198712	Buchhaltung	-0.08473416
-4.198712	Buchungs-	-0.06372762
-4.198712	Buchungsprozesses	-0.07311737
-4.198712	Bucketlist	-0.04633292
-4.198712	Budgetierungsprozesses	-0.08379854
-4.198712	Budgetmanagementsystems	-0.04633292
-4.198712	Budgetplanung	-0.08448669
-4.198712	Build-Verfahrens	-0.07986899
-4.198712	Buildings	-0.08476165
-4.198712	Buildsysteme	-0.04633292
-4.198712	Buildsystems	-0.08478913
-3.499742	Bundesagentur	-0.6911917
-4.198712	Bundeszollverwaltung.	-0.04633292
-4.198712	Burndown-Dashboards	-0.07559487
-2.800772	Business	-0.5292457
-4.198712	Business-Anwendungen	-0.04633292
-4.198712	Business-Intelligence-Software	-0.08478913
-4.198712	Business-Intelligence-Strategie	-0.07311737
-4.198712	Businessobjekten	-0.08399133
-4.198712	Bürobedarf	-0.08434915
-4.198712	Bürobereich	-0.08379854
-3.596652	C#	-0.07291997
-4.198712	C#-Projekten	-0.07986899
-4.198712	C#-basierten	-0.08478913
-3.499742	C++	-0.1016268
-4.198712	CAD	-0.08478913
-4.198712	CAD-Daten	-0.07755557
-4.198712	CAD-Software	-0.08258473
-4.198712	CAE-Softwareentwicklung	-0.04633292
-4.198712	CAE-System	-0.04633292
-4.198712	CAJAC	-0.04633292
-3.721591	CAN	-0.1139095
-4.198712	CAN-Bus	-0.08465169
-4.198712	CAPI	-0.04633292
-4.198712	CE	-0.08407393
-4.198712	CI	-0.07755557
-4.198712	CMDB	-0.06372762
-3.897682	CMMI	-0.04582211
-3.499742	CMS	-0.03055422
-4.198712	CNN-basierte	-0.08470667
-3.420561	CRM	-0.04467812
-4.198712	CRM-Daten	-0.08258473
-3.897682	CRM-Systeme:	-0.08467919
-4.198712	CRM-Systemen	-0.08478913
-4.198712	CSS3	-0.04633292
-4.198712	CT	-0.04633292
-4.198712	CT-basiertes	-0.08478913
-4.198712	Caching-Algorithmen	-0.07424526
-4.198712	Caching-Strategien	-0.06372762
-4.198712	Campus	-0.08437666
-4.198712	CampusWeb	-0.04633292
-4.198712	Canvas,	-0.07986899
-4.198712	Capping	-0.06809099
-4.198712	Capturing,	-0.08478913
-4.198712	Carbot-Simulationsumgebung	-0.04633292
-4.198712	Care	-0.08341269
-3.897682	Carl	-0.08476166
-4.198712	Case	-0.08467918
-4.198712	Case-Based-Reasoning-Ansatz	-0.06372762
-4.198712	Casual	-0.08478913
-4.198712	Celonis	-0.08476165
-3.897682	Center	-0.1521977
-3.897682	Centered	-0.1900488
-4.198712	Certificate	-0.08478913
-4.198712	Chain	-0.08462419
-4.198712	Challenges	-0.08478913
-3.596652	Chancen	-0.2446082
-4.198712	Change-Controlling	-0.08039685
-4.198712	Channel-Aware	-0.08478913
-4.198712	Chart-Bibliotheken	-0.07311737
-3.596652	Chatbot	-0.06265882
-4.198712	Chatbot-Systeme	-0.04633292
-3.721591	Chatbots	-0.1397647
-4.198712	Checker	-0.07311737
-4.198712	Chemielogistik	-0.08258473
-4.198712	Citizen-Science-Konzepts	-0.07559487
-4.198712	Classification	-0.08374344
-3.897682	Clean	-0.1905989
-3.721591	Client	-0.151628
-4.198712	Client-Anwendung	-0.06372762
-3.897682	Client-Server	-0.08473417
-4.198712	Client-Server-Anwendung	-0.07986899
-4.198712	Client-Server-Architektur	-0.07311737
-4.198712	Client-Server-Kommunikation	-0.04633292
-4.198712	Client-Virtualisierung	-0.08039685
-3.499742	Clients	-0.1149143
-3.24447	Cloud	-0.0427924
-4.198712	Cloud-Computing-Plattform	-0.08039685
-4.198712	Cloud-Plattform	-0.07311737
-4.198712	Cloud-basierte	-0.08478913
-4.198712	Cloud-basiertes	-0.0845692
-4.198712	Cloudplattform	-0.07986899
-4.198712	Clustering	-0.06809099
-3.897682	Co.	-0.1906264
-4.198712	Cochlea	-0.08478913
-4.198712	Cockpits	-0.04633292
-3.721591	Code	-0.1138795
-4.198712	Code-Analyse	-0.08039685
-4.198712	Code-Basis	-0.04633292
-4.198712	CodeLeaves	-0.08407393
-3.897682	Codeanalyse	-0.1857338
-4.198712	Codegenerators	-0.07559487
-4.198712	Codequalität	-0.04633292
-4.198712	Codierung	-0.08379854
-4.198712	Codierungsmethoden	-0.06372762
-4.198712	Collaboration	-0.0845417
-3.897682	Collaborative	-0.1906264
-4.198712	Colonization	-0.08476165
-4.198712	Colorways	-0.08478913
-4.198712	Communication	-0.07755557
-3.897682	Community	-0.04600247
-4.198712	Community-Portal	-0.06372762
-3.897682	Comparison	-0.04516017
-4.198712	Complex	-0.08478913
-3.897682	Computer	-0.08473417
-4.198712	Computernetzwerk	-0.08122899
-4.198712	Computerspiele	-0.08341269
-4.198712	Computertomographen	-0.04633292
-3.721591	Computing	-0.04470825
-4.198712	Computings	-0.08379854
-3.721591	Concept	-0.1133084
-4.198712	Concept-Modells	-0.07311737
-3.897682	Conception	-0.1900763
-4.198712	Concepts	-0.08039685
-4.198712	Condition	-0.0845692
-4.198712	Conference	-0.08341269
-3.897682	Conferencing	-0.04150134
-4.198712	Configuration	-0.08429412
-4.198712	Conitinuous	-0.08382609
-3.596652	Connect	-0.09580722
-4.198712	Connect"	-0.08407393
-4.198712	Connectivity	-0.08459669
-3.897682	Consumer-Endgeräte	-0.1521977
-4.198712	Contact-Center-Umgebung	-0.07311737
-4.198712	Container	-0.04633292
-4.198712	Container-Orchestrierungstools	-0.08478913
-4.198712	Containerisierung	-0.07311737
-4.198712	Containern	-0.08407393
-4.198712	Containernetzwerken	-0.04633292
-3.499742	Content	-0.0812567
-4.198712	Content-Management	-0.04633292
-4.198712	Content-Management-System	-0.04633292
-3.897682	Content-Management-Systems	-0.04627286
-4.198712	Content-Management-Umfeld	-0.04633292
-4.198712	Context	-0.08374344
-3.897682	Continental	-0.1904615
-3.24447	Continuous	-0.3242539
-4.198712	Controlling-Systems	-0.07311737
-4.198712	Controls	-0.07311737
-4.198712	Conversations	-0.04633292
-3.596652	Convolutional	-0.7916275
-4.198712	Cooperative	-0.08478913
-4.198712	Core	-0.04633292
-3.897682	Corporate	-0.08476166
-4.198712	Cosmetics	-0.04633292
-4.198712	Counseling	-0.04633292
-4.198712	Cross	-0.08478913
-4.198712	Cross-Bilateralen-Filters	-0.07311737
-4.198712	Cross-Browser-Tests	-0.07986899
-4.198712	Cross-Platform	-0.08437666
-4.198712	Cross-Platform-App	-0.07559487
-4.198712	Cross-Plattform	-0.08478913
-4.198712	Cross-plattform	-0.08476165
-4.198712	Crossplattform-Applikation	-0.07311737
-3.897682	Crowdsourcing	-0.06777669
-4.198712	Cultural	-0.08478913
-4.198712	Custom	-0.08478913
-4.198712	Customer	-0.08478913
-4.198712	Customer-Journey-Map	-0.07311737
-4.198712	Customer-Relationship	-0.08429412
-4.198712	Customizing	-0.08473416
-4.198712	Customizing-Lösungen	-0.08039685
-4.198712	Cyber-Diode	-0.07559487
-4.198712	Cyber-Physischen	-0.0845692
-4.198712	Cyber-Sicherheitsmodell	-0.04633292
-4.198712	Cyber-Threat-Modells	-0.07986899
-4.198712	Cyber-physischer	-0.08478913
-4.198712	Cyberphysikalische	-0.08467918
-4.198712	DALI	-0.04633292
-4.198712	DANE-Protokolls	-0.07311737
-2.508516	DATEV	-0.7752215
-4.198712	DATEV-Jahresabschlusses	-0.04633292
-4.198712	DATEV-Online-Anwendung	-0.08478913
-4.198712	DATEV-Rechnungsschreibung	-0.04633292
-3.897682	DATEV-SmartIT	-0.1906264
-4.198712	DATEV-on-premise-Komponente	-0.08478913
-3.897682	DATEV.	-0.1521977
-3.897682	DATEVasp	-0.1521977
-4.198712	DATEVconnect	-0.04633292
-4.198712	DATEVconnect-Schnittstelle	-0.06809099
-4.198712	DATEVnet	-0.08478913
-4.198712	DB	-0.08476165
-4.198712	DB-Code	-0.08258473
-4.198712	DIN	-0.08478913
-4.198712	DMS	-0.04633292
-4.198712	DMS-Arbeitsplatzintegration	-0.04633292
-4.198712	DNA	-0.08407393
-4.198712	DRG-Eingruppierungsanzeige	-0.07986899
-4.198712	DSGVO	-0.08039685
-4.198712	DSL	-0.07311737
-4.198712	DWH	-0.04633292
-4.198712	DXF-Zeichnung	-0.04633292
-4.198712	Daimler	-0.08415651
-3.157319	Darstellung	-0.220723
-4.198712	Das	-0.08478913
-3.24447	Dashboards	-0.2379312
-3.052584	Data	-0.07280801
-4.198712	Data-Mining	-0.04633292
-4.198712	Data-Mining-Verfahren	-0.07559487
-4.198712	Data-Query-Framework	-0.04633292
-4.198712	Database	-0.08476165
-4.198712	Databases	-0.04633292
-4.198712	Databinding	-0.07311737
-2.943439	Daten	-0.09117627
-3.596652	Datenanalyse	-0.05557325
-3.897682	Datenaustausch	-0.190324
-4.198712	Datenauswertungstools	-0.07559487
-3.596652	Datenbank	-0.03260468
-4.198712	Datenbank"	-0.04633292
-4.198712	Datenbank-Basierten	-0.08478913
-3.420561	Datenbanken	-0.06059003
-4.198712	Datenbanken,	-0.08476165
-4.198712	Datenbanksystem	-0.04633292
-4.198712	Datenbanksystems	-0.08407393
-4.198712	Datenbanktreibers	-0.08377099
-4.198712	Datenbankzugriffe	-0.07986899
-4.198712	Datenbordnetz	-0.08478913
-4.198712	Datenbrille	-0.07986899
-4.198712	Datenerfassungssystems	-0.04633292
-4.198712	Datenerhebungen	-0.07755557
-4.198712	Datengetriebene	-0.08393626
-4.198712	Datengrundlage	-0.08122899
-4.198712	Datenhaltung	-0.08039685
-4.198712	Datenhaltungsschicht	-0.07311737
-3.897682	Datenintegration	-0.06857629
-4.198712	Datenlandschaft	-0.07311737
-4.198712	Datenlogistik	-0.08294371
-4.198712	Datenmanagements	-0.08258473
-4.198712	Datenmodellierung	-0.07311737
-4.198712	Datenmodells	-0.07559487
-4.198712	Datenqualitätstools	-0.07311737
-3.721591	Datenquellen	-0.1387164
-4.198712	Datenraum	-0.07209976
-4.198712	Datenrouting-Services	-0.07311737
-4.198712	Datensammlung	-0.06372762
-3.721591	Datenschnittstelle	-0.06326576
-4.198712	Datenschutzgrundverordnung	-0.08478913
-4.198712	Datenschutzmanagementtools	-0.07311737
-4.198712	Datenschutzrichtlinien	-0.04633292
-4.198712	Datensicherungsstrategie	-0.07311737
-4.198712	Datenstromverarbeitung	-0.04633292
-4.198712	Datenstruktur	-0.07311737
-4.198712	Datenstrukturänderungen	-0.08039685
-4.198712	Datensätze	-0.08377099
-4.198712	Datentransfer	-0.08445919
-4.198712	Datentransferservice	-0.07986899
-4.198712	Datenträgern	-0.07755557
-4.198712	Datenvalidierung	-0.08039685
-4.198712	Datenverarbeitung	-0.07986899
-4.198712	Datenvirtualisierungslösung	-0.07311737
-4.198712	Datenvisualisierung	-0.07755557
-4.198712	Datenzugriffe	-0.07311737
-3.897682	Datenübergabeprozesses	-0.1862616
-4.198712	Datenübermittlungssystem	-0.04633292
-3.721591	Datenübertragung	-0.09566109
-4.198712	Datev	-0.08478913
-4.198712	De-facto-Standard	-0.08039685
-4.198712	Debuggers	-0.04633292
-4.198712	Decathlon	-0.08478913
-4.198712	Decoupling	-0.08478913
-3.295622	Deep	-0.9873291
-4.198712	Deep-Learning	-0.08462419
-3.897682	DeepLearning-Frameworks	-0.1521977
-3.897682	Definition	-0.05143794
-4.198712	Dehnungsereignissen	-0.07755557
-3.420561	Delivery	-0.006382294
-3.353614	Dematic	-0.4865292
-4.198712	Demonstrator.	-0.04633292
-3.721591	Deployment	-0.06257204
-4.198712	Deployment-Prozessen	-0.07311737
-4.198712	Deploymentprozesses	-0.06809099
-4.198712	Deposition	-0.08473416
-3.897682	Der	-0.08355054
-3.897682	Description	-0.1905165
-2.836984	Design	-0.4294004
-4.198712	Design-by-Contract	-0.07755557
-4.198712	Designprozesses	-0.08122899
-4.198712	Designs	-0.06372762
-3.721591	Desk	-0.1098662
-3.897682	Desktopanwendung	-0.07390721
-4.198712	Desktopbereitstellung	-0.04633292
-4.198712	Detailgradsteuerung	-0.06809099
-3.721591	Detection	-0.1060296
-4.198712	Detection"	-0.07986899
-4.198712	Detektion	-0.06809099
-4.198712	Deutsche	-0.08478913
-4.198712	Deutschen	-0.08122899
-4.198712	Deutschland	-0.04633292
-4.198712	DevOps-Kontext	-0.04633292
-4.198712	DevSecOps	-0.08341269
-3.596652	Development	-0.07881136
-4.198712	Development"	-0.08341269
-3.897682	Devices	-0.1521977
-3.897682	Diagnose	-0.1905989
-3.897682	Diagnosedaten	-0.190489
-4.198712	Diagnosegerät	-0.07311737
-4.198712	Dialog	-0.07986899
-4.198712	Dialoglandkarten	-0.08122899
-4.198712	Dialogmodellierung	-0.07311737
-4.198712	Dialogs	-0.07986899
-3.897682	Dialogsystem	-0.1521977
-4.198712	Dialogsystems	-0.08039685
-4.198712	Dictionaries	-0.07559487
-3.353614	Die	-0.05897009
-3.897682	Dienste	-0.03353354
-4.198712	Diensten	-0.07311737
-3.721591	Dienstes	-0.02314201
-4.198712	Dienstleister	-0.06372762
-4.198712	Dienstleisters	-0.07559487
-4.198712	Dienstleistungserfassungssystems	-0.04633292
-4.198712	Dienstleistungssteuerungssystems	-0.07755557
-3.596652	Digital	-0.08470666
-3.897682	Digitale	-0.08473417
-4.198712	Digitalen	-0.08462419
-3.420561	Digitalisierung	-0.1106234
-4.198712	Digitalisierungsansätzen	-0.07311737
-4.198712	Dinge	-0.04633292
-4.198712	Directors	-0.07986899
-3.897682	Direktbank	-0.0754545
-4.198712	Direktvertriebs	-0.04633292
-3.897682	Display	-0.05404188
-4.198712	Distributed	-0.08478913
-4.198712	Distribution	-0.07424526
-4.198712	Diversity	-0.07755557
-4.198712	DoS-Angriffs	-0.08122899
-3.897682	Docker	-0.03353354
-4.198712	Docker-Swarm,	-0.08478913
-4.198712	Docsis-Umfeld	-0.04633292
-4.198712	Documents"	-0.08470667
-3.499742	Dokumentation	-0.02907744
-4.198712	Dokumente	-0.08379854
-3.596652	Dokumenten	-0.1005288
-4.198712	Dokumenten-Management-Systems	-0.04633292
-3.897682	Dokumentenmanagement	-0.07283495
-3.897682	Dokumentenmanagementsystem	-0.03241869
-3.897682	Dokumentenmanagementsystems	-0.07475186
-4.198712	Dokumententwicklung	-0.04633292
-4.198712	Dokumentenverwaltung	-0.08039685
-4.198712	Dokumentenähnlichkeiten	-0.07559487
-4.198712	Domain	-0.08478913
-4.198712	Domänenmodelle	-0.04633292
-4.198712	Doors	-0.04633292
-4.198712	Dr.	-0.08478913
-3.897682	Dreiecksnetzen	-0.1521977
-4.198712	Dritter	-0.08399133
-3.897682	Driven	-0.08467919
-4.198712	Drohnen-Videoaufnahmen	-0.04633292
-4.198712	Drohnenbasierter	-0.08478913
-4.198712	Drohnentechnologien	-0.07559487
-4.198712	Drone	-0.08476165
-4.198712	Drucker-Scanner-Analyse	-0.07986899
-4.198712	Dublettenprüfung	-0.08039685
-3.897682	Duplikaten	-0.0561021
-4.198712	Duplikaterkennung	-0.06809099
-3.499742	Durchführung	-0.493378
-4.198712	Durchführungsprozesses	-0.07311737
-4.198712	Durchlaufzeiten	-0.06809099
-3.420561	Dynamics	-0.5192793
-4.198712	Dynamisch	-0.08478913
-4.198712	Dynpro-Applikation	-0.04633292
-4.198712	E-Bilanz:	-0.07735991
-3.24447	E-Commerce	-0.04139073
-4.198712	E-Commerce-Plattformen	-0.04633292
-4.198712	E-Commerce-System	-0.08478913
-4.198712	E-Communities	-0.08122899
-4.198712	E-Gitarrenaufnahmen	-0.04633292
-3.721591	E-Learning	-0.1477558
-4.198712	E-Learning-Elementen	-0.04633292
-4.198712	E-Mail	-0.08467918
-4.198712	E-Mail-Marketingplattform	-0.04633292
-4.198712	E-Mail-Templates	-0.04633292
-4.198712	E-Mail-Verarbeitung	-0.07755557
-4.198712	E-Mailverificationsmicroservices	-0.07311737
-4.198712	E-Payment,	-0.08189355
-4.198712	E-Procurement	-0.07755557
-4.198712	EAI	-0.08473416
-4.198712	EAST-ADL	-0.08478913
-4.198712	EAST-ADL-	-0.08415651
-4.198712	EAST-ADL-Modellen	-0.08039685
-3.721591	EB	-0.1523708
-4.198712	EB-GUIDE	-0.08476165
-4.198712	EBDirigo	-0.04633292
-4.198712	ELN	-0.08122899
-4.198712	ELO	-0.04633292
-4.198712	EMPAMOS-Projektes	-0.04633292
-4.198712	EN	-0.08478913
-4.198712	ERP	-0.0840464
-4.198712	ERP-Branchenlösung	-0.04633292
-3.897682	ERP-Software	-0.04389365
-3.353614	ERP-System	-0.04993046
-3.897682	ERP-Systeme	-0.04150134
-4.198712	ERP-Systemen	-0.08407393
-3.721591	ERP-Systems	-0.3379627
-4.198712	ERP-Umfeld	-0.04633292
-4.198712	ERP/CRM	-0.06809099
-3.897682	ETL	-0.0846242
-4.198712	ETL-Tools	-0.04633292
-4.198712	EU-Datenschutzverordnung	-0.08294371
-4.198712	EU-Verordnung	-0.08478913
-4.198712	EVS	-0.08478913
-3.721591	EWM	-0.1138494
-4.198712	EXASolution	-0.04633292
-4.198712	EXIM	-0.08478913
-4.198712	Echo	-0.07986899
-4.198712	Echtzeit	-0.04633292
-4.198712	Echtzeit-Darstellung	-0.06809099
-4.198712	Echtzeit-Generierung	-0.06809099
-4.198712	Echtzeit-Lösungsmitteilung	-0.08258473
-4.198712	Echtzeit-Middleware	-0.08478913
-4.198712	Echtzeit-Zusammenarbeit	-0.08039685
-4.198712	Echtzeit-kollaborativen	-0.08478913
-3.897682	Echtzeitanalyse	-0.1739558
-4.198712	Echtzeitbetriebssystem	-0.08478913
-4.198712	Echtzeitdownloads	-0.07559487
-4.198712	Echtzeitfeedback	-0.08039685
-4.198712	Echtzeitinformationen	-0.07311737
-4.198712	Echtzeitscheduling	-0.08122899
-4.198712	Echtzeitüberwachung	-0.06809099
-4.198712	Echzeit	-0.07986899
-4.198712	Eclipse-Plugin	-0.07559487
-4.198712	Eclipse-Plugins	-0.07559487
-4.198712	Eclipse-basierten	-0.08476165
-4.198712	Economy	-0.08415651
-3.897682	Edge	-0.0844867
-3.721591	Edition	-0.1180048
-4.198712	Editor	-0.08039685
-3.897682	Editors	-0.0559259
-4.198712	Effektive	-0.08476165
-4.198712	Effektivität	-0.07209976
-4.198712	Efficient	-0.08473416
-3.596652	Effiziente	-0.1343113
-3.897682	Effizienz	-0.05486715
-4.198712	Effizienzsteigerung	-0.08106268
-4.198712	Eigenschaften	-0.04633292
-3.596652	Eignung	-0.1158016
-3.420561	Ein	-0.08297132
-4.198712	Einbettung	-0.06809099
-3.897682	Einbezug	-0.064189
-3.596652	Einbindung	-0.1617907
-4.198712	Eindämmung	-0.07209976
-3.596652	Eine	-0.1341188
-4.198712	Einfamilienhaus	-0.07986899
-3.596652	Einfluss	-0.07688433
-4.198712	Einflusses	-0.06809099
-4.198712	Einflussfaktoren	-0.04633292
-2.856289	Einführung	-0.5011182
-4.198712	Eingabekonzepte	-0.07311737
-3.897682	Eingabemöglichkeiten	-0.07241096
-4.198712	Eingabeverfahren	-0.04633292
-3.897682	Eingangsrechnungen	-0.1834204
-3.897682	Einkauf	-0.06700426
-4.198712	Einkaufs-	-0.06372762
-4.198712	Einkaufsdigitalisierung	-0.08258473
-4.198712	Einkaufserlebnisses	-0.04633292
-3.897682	Einordnung	-0.1739558
-3.897682	Einrichten	-0.18011
-2.575463	Einsatz	-0.515409
-3.420561	Einsatzes	-0.4307842
-4.198712	Einsatzgebiete	-0.06809099
-3.596652	Einsatzmöglichkeiten	-0.08194721
-4.198712	Einsatzmöglichkeiten,	-0.08313688
-4.198712	Einsatzplanungssoftware	-0.07311737
-4.198712	Einsatzszenarien	-0.07209976
-4.198712	Einsetzbarkeit	-0.06372762
-4.198712	Einspruch	-0.08478913
-4.198712	Einspruch"	-0.07755557
-4.198712	Einstieg	-0.07755557
-4.198712	Einzelhandel	-0.04633292
-4.198712	Einzelhandel:	-0.07735991
-4.198712	Einzelhandels	-0.04633292
-4.198712	Eisenbahngüterverkehrsunternehmen	-0.04633292
-3.897682	Elastic	-0.1906264
-4.198712	ElasticSearch	-0.04633292
-4.198712	Electron	-0.08478913
-4.198712	Elektrofahrzeuge	-0.04633292
-4.198712	Elektroinformationstechnik	-0.04633292
-4.198712	Elektronik-Fertigung	-0.04633292
-4.198712	Elektronikprodukte	-0.04633292
-4.198712	Elektrotechnik	-0.04633292
-3.897682	Embedded	-0.08390872
-4.198712	Embedded-Systemen	-0.04633292
-4.198712	Embedding-Modell	-0.0839638
-4.198712	Emotion	-0.08421156
-3.897682	Emotionen	-0.1834204
-4.198712	Empamos-Spiel-Design-Entwurfsmustern	-0.07559487
-3.897682	Empfehlung	-0.1739558
-4.198712	Empfehlungen	-0.08476165
-4.198712	Empfehlungsalgorithmus	-0.08407393
-3.721591	Empfehlungsqualität	-0.3597208
-3.897682	Empfehlungssysteme	-0.1521977
-4.198712	Empfehlungssystems	-0.07559487
-4.198712	Enable	-0.08478913
-4.198712	Enabled	-0.08465169
-4.198712	End-to-End-Monitoring	-0.08106268
-3.499742	Endgeräte	-0.08050354
-3.596652	Endgeräten	-0.2216925
-4.198712	Endmontagelinie	-0.04633292
-4.198712	Energiemanagement-Daten	-0.08379854
-4.198712	Energiemanagementframework	-0.08476165
-4.198712	Energiemanagementsystem	-0.08476165
-4.198712	Energien	-0.07755557
-4.198712	Energiewirtschaft	-0.04633292
-4.198712	Energiezählern	-0.08462419
-3.499742	Engine	-0.1247864
-4.198712	Engineer	-0.07755557
-3.295622	Engineering	-0.05526074
-4.198712	Engineering,	-0.08478913
-3.721591	Enterprise	-0.08437666
-4.198712	Enterprise-Anwendungen	-0.04633292
-4.198712	Entfernungsbasierte	-0.08478913
-4.198712	Entfernungsmessung	-0.07755557
-4.198712	Entitätserkennung	-0.07755557
-4.198712	Entrepreneurship	-0.08294371
-4.198712	Entscheidung	-0.07311737
-4.198712	Entscheidungen	-0.08478913
-3.897682	Entscheidungsfaktoren	-0.08120128
-4.198712	Entscheidungshilfe	-0.07311737
-4.198712	Entscheidungsmodells	-0.07559487
-4.198712	Entscheidungsunterstützung	-0.08039685
-4.198712	Entscheidungsverfahrens	-0.07559487
-4.198712	Entsorgungswirtschaft	-0.08294371
-4.198712	Entwerfen	-0.07424526
-4.198712	Entwickeln	-0.07424526
-4.198712	Entwickler	-0.04633292
-1.87443	Entwicklung	-1.115737
-3.897682	Entwicklung,	-0.08059116
-4.198712	Entwicklungskorridore	-0.08106268
-4.198712	Entwicklungsmethoden	-0.04633292
-4.198712	Entwicklungsplattformen	-0.06809099
-4.198712	Entwicklungsprojektes	-0.04633292
-4.198712	Entwicklungsprozesse	-0.07755557
-4.198712	Entwicklungsprozesses	-0.08258473
-3.721591	Entwicklungsumgebung	-0.1312777
-4.198712	Entwicklungsumgebungen	-0.04633292
-2.70735	Entwurf	-0.9402006
-4.198712	Entwurfsmuster	-0.08341269
-4.198712	Entwurfsmustern	-0.07755557
-4.198712	Entwurfsvarianten	-0.07311737
-4.198712	Erarbeiten	-0.07424526
-3.499742	Erarbeitung	-0.1158745
-3.198712	Erfassung	-0.5161656
-4.198712	Erfassung,	-0.08473416
-4.198712	Erfolgspotentialen	-0.08448669
-4.198712	Erfolgspotenzialen	-0.08407393
-3.897682	Erfüllung	-0.1779645
-4.198712	Ergebnismengen	-0.04633292
-4.198712	Ergebnissen	-0.08379854
-4.198712	Ergänzung	-0.08106268
-4.198712	Erhebung	-0.06809099
-4.198712	Erkennen	-0.06372762
-2.919958	Erkennung	-0.5485657
-3.897682	Erkundung	-0.1905989
-4.198712	Erlangen	-0.07209976
-3.295622	Ermittlung	-0.14571
-4.198712	Ermittlung,	-0.08385363
-4.198712	Ermöglichung	-0.06809099
-4.198712	Erneuerung	-0.08106268
-3.897682	Ernährung	-0.05853235
-4.198712	Ersatz	-0.07311737
-4.198712	Erschließung	-0.06809099
-4.198712	Erstbefüllung	-0.07311737
-3.721591	Erstellen	-0.1190746
-2.736314	Erstellung	-0.6056928
-4.198712	Erstprüfers:	-0.08478913
-4.198712	Erstsemesterstudenten	-0.07311737
-4.198712	Erweiterbarkeit	-0.08106268
-3.052584	Erweiterung	-0.5965435
-3.897682	Erzeugung	-0.0559259
-4.198712	Estate	-0.08478913
-4.198712	EtherCat	-0.04633292
-4.198712	Ethereum	-0.08258473
-4.198712	Ethernet	-0.08399133
-4.198712	Europe	-0.04633292
-2.491142	Evaluation	-0.3330125
-4.198712	Evaluation,	-0.07735991
-2.565244	Evaluierung	-0.8215848
-4.198712	Evaluierung,	-0.0845417
-4.198712	Event	-0.08478913
-4.198712	Event-Mechanismus	-0.07755557
-4.198712	Event-Versionierung	-0.04633292
-4.198712	Eventbereich	-0.04633292
-3.897682	Evolution	-0.06309244
-4.198712	Examination	-0.08374344
-4.198712	Exchange	-0.08039685
-4.198712	Exemplarische	-0.08286089
-4.198712	Expansion	-0.08478913
-3.897682	Experience	-0.08097952
-4.198712	Experimentelle	-0.08189355
-4.198712	Expertisen-	-0.06372762
-4.198712	Exploiting	-0.08478913
-4.198712	Exploration	-0.08374344
-3.897682	Exploring	-0.08476166
-4.198712	Exportierung	-0.07311737
-4.198712	Exportmoduls	-0.08122899
-4.198712	ExtBase	-0.06372762
-4.198712	Extraction	-0.08374344
-4.198712	Extraction,	-0.08478913
-3.721591	Extraktion	-0.3597208
-4.198712	Extraktion,	-0.08467918
-4.198712	Extraktionsstrategien	-0.08379854
-4.198712	Extremität	-0.04633292
-4.198712	Eye	-0.08470667
-4.198712	Eye-Tracking-Systems	-0.08294371
-4.198712	FAQ	-0.08039685
-4.198712	FEM	-0.08476165
-4.198712	FH-Rosenheim	-0.04633292
-4.198712	FM:	-0.08459669
-4.198712	FMS-Telegramme	-0.07311737
-3.897682	Fa.	-0.08476166
-4.198712	Fabric	-0.08476165
-4.198712	Fabrikmodells	-0.08385363
-4.198712	Facebook	-0.04633292
-4.198712	Faces	-0.07755557
-4.198712	Fachbereichen	-0.04633292
-4.198712	Fachkompetenzen	-0.07559487
-4.198712	Fachliche	-0.07735991
-4.198712	Fachrichtung	-0.08478913
-4.198712	Facility	-0.08429412
-4.198712	Fahrdrahtlage	-0.04633292
-4.198712	Fahren	-0.04633292
-4.198712	Fahrerassistenzsystemen	-0.08407393
-4.198712	Fahrtenbuchs	-0.08122899
-4.198712	Fahrtziel	-0.06809099
-4.198712	Fahrzeug	-0.04633292
-4.198712	Fahrzeug-Flottendaten	-0.04633292
-4.198712	Fahrzeugausstattungen"	-0.04633292
-3.897682	Fahrzeugdiagnose	-0.1695924
-4.198712	Fahrzeugparametern	-0.08412899
-4.198712	Failover	-0.06809099
-4.198712	Faktoren	-0.08385363
-4.198712	Fakturasoftware	-0.04633292
-4.198712	Fakturisierungsmaschinen	-0.07986899
-3.499742	Fakultät	-0.2794864
-4.198712	Fakultätsjahresbericht	-0.08412899
-4.198712	Fallbeispiel	-0.08478913
-4.198712	Fallbeispielen	-0.04633292
-3.596652	Fallstudie	-0.09154984
-4.198712	Fasern	-0.08407393
-4.198712	Fassaden-Kalkulationsprogramms	-0.0845417
-4.198712	Fax	-0.0845417
-4.198712	Fax-Anzeige-Controls	-0.07311737
-4.198712	Federated	-0.08478913
-4.198712	Feedback	-0.08478913
-4.198712	Feedback-Management-System	-0.04633292
-4.198712	Feedbacksystems	-0.07311737
-4.198712	Fehleranalyse	-0.06372762
-4.198712	Fehlerberichten	-0.08399133
-4.198712	Fehlerberichts-	-0.06372762
-4.198712	Fehlermanagement	-0.07755557
-4.198712	Fehlermanagementsystem	-0.04633292
-4.198712	Fehlermustern	-0.06372762
-4.198712	Fehlernachrichten	-0.07311737
-3.897682	Feingranulare	-0.08473417
-4.198712	Feldern	-0.04633292
-4.198712	Fernsignatur	-0.08407393
-3.721591	Fernsteuerung	-0.04461782
-4.198712	Fertigung	-0.04633292
-4.198712	Fertigungsanlagen	-0.07559487
-4.198712	Fertigungsindustrie	-0.07897853
-4.198712	Fertigungsnetze	-0.04633292
-4.198712	Fertigungsprozess	-0.08407393
-4.198712	Fertigungsprozessen	-0.07559487
-4.198712	Fertigungsprozesses	-0.08379854
-4.198712	Fertigungsumfeld	-0.04633292
-4.198712	Festlegung	-0.08467918
-4.198712	Feuerwehren	-0.04633292
-4.198712	Filesharing	-0.08341269
-3.897682	Filtering	-0.04428606
-4.198712	Filtern	-0.08341269
-4.198712	Filters	-0.07311737
-4.198712	Finance	-0.06372762
-4.198712	Finanz-	-0.06372762
-4.198712	Finanzbuchhaltungssystemen	-0.08407393
-3.897682	Finanzmarktnachrichten	-0.1870938
-4.198712	Finanzsektor	-0.08363322
-4.198712	Fingerprinting	-0.06809099
-3.897682	Fiori	-0.04585218
-3.24447	Firma	-0.06122412
-4.198712	Firma:	-0.08478913
-4.198712	Firmen-Netzwerke	-0.04633292
-3.897682	Firmenlogos	-0.05850314
-4.198712	Firmennetz-Infrastruktur	-0.04633292
-4.198712	First	-0.08478913
-4.198712	Fit	-0.08478913
-4.198712	Flexibilisierung	-0.06809099
-4.198712	Flexible	-0.08478913
-4.198712	Flexray-Toolchain	-0.07559487
-3.897682	Flink	-0.1695924
-4.198712	Fluent	-0.08470667
-4.198712	Flugobjekte	-0.04633292
-4.198712	Flugrouten-Planung	-0.06372762
-4.198712	Flugverkehr	-0.04633292
-4.198712	Fluid	-0.04633292
-4.198712	Flächenrekonstruktion	-0.06809099
-3.24447	Fokus	-1.035444
-4.198712	Fonds-Order	-0.07311737
-4.198712	Foodtracking-Applikationen	-0.07559487
-4.198712	Force	-0.08478913
-3.897682	Forenbeiträgen	-0.1521977
-3.897682	Form	-0.0559259
-4.198712	Formularauswertung	-0.07986899
-4.198712	Formulare	-0.04633292
-4.198712	Forschung	-0.06372762
-4.198712	Forschungsprojekten.	-0.04633292
-4.198712	Forschungszwecken	-0.04633292
-4.198712	Fortbewegung	-0.07755557
-4.198712	Fotorealistische	-0.08382609
-4.198712	Foundation	-0.08451419
-4.198712	Frage-Antwort-Systeme	-0.04633292
-4.198712	Frameratenoptimierung	-0.07311737
-3.596652	Framework	-0.09448315
-4.198712	Framework,	-0.08473416
-4.198712	Framework-Anwendung	-0.08377099
-2.994592	Frameworks	-0.3012021
-4.198712	Franchtenbenchmarking	-0.07755557
-3.897682	Fraud	-0.1884495
-4.198712	Fraunhofer	-0.04633292
-4.198712	Fraunhofer-Arbeitsgruppe	-0.07311737
-4.198712	Freigabe-	-0.06372762
-4.198712	Freigabegespräch.	-0.04633292
-4.198712	Freiheiten	-0.07209976
-4.198712	Fremdbibliotheken	-0.07755557
-4.198712	Fremdentwicklungsanteilen	-0.04633292
-4.198712	Frequency	-0.08478913
-4.198712	Fresenius	-0.08478913
-4.198712	Friedrichshafen	-0.08415651
-4.198712	Friseur-	-0.08476165
-4.198712	Front-End	-0.08478913
-4.198712	Front-End-Webframeworks	-0.08478913
-3.897682	Frontend	-0.07300442
-4.198712	Frontends	-0.07311737
-4.198712	Fräsen	-0.07755557
-4.198712	Frühwarn-	-0.06372762
-4.198712	Full-HD	-0.08478913
-4.198712	Funk-	-0.06372762
-4.198712	Funksensordaten	-0.08122899
-4.198712	Funktionaler	-0.08385363
-4.198712	Funktionen	-0.04633292
-4.198712	Fused	-0.08478913
-3.897682	Fusion	-0.05143794
-4.198712	Fuzzy	-0.08478913
-4.198712	Fuzzy-Optimierungssystems	-0.08122899
-4.198712	Fuzzy-Planungsmodellen	-0.07755557
-4.198712	Fußballspielern	-0.04633292
-4.198712	Fußgängerampeln	-0.08407393
-4.198712	Förderung	-0.08478913
-4.198712	Führungsaufgaben	-0.08039685
-4.198712	GIT	-0.08478913
-4.198712	GPS-Tracker	-0.07311737
-4.198712	GPU	-0.08106268
-4.198712	GSO	-0.04633292
-3.897682	GUI	-0.07548258
-4.198712	GUI-Entwicklung	-0.07986899
-3.897682	GUIDE	-0.1906264
-3.721591	Game	-0.07480811
-4.198712	Game-Engine	-0.04633292
-4.198712	Games	-0.04633292
-3.420561	Gamification	-0.4810354
-4.198712	Gamification-Konzepts	-0.08294371
-4.198712	Gamification-Lösung	-0.07311737
-3.897682	Gamification-Mustersprache	-0.07192993
-4.198712	Gamificationkonzepten	-0.08407393
-4.198712	Gamifizierung	-0.06809099
-4.198712	Gamma	-0.08478913
-4.198712	Gangsystemen	-0.07986899
-4.198712	GeNUGate	-0.04633292
-4.198712	Geburt	-0.06372762
-3.897682	Gebäudefassaden	-0.07539833
-4.198712	Gebäudekonstruktion	-0.04633292
-4.198712	Gebäudemonitoring	-0.04633292
-4.198712	Gebäuden	-0.06372762
-4.198712	Gebäudes	-0.04633292
-3.897682	Gebäudesteuerung	-0.07306091
-4.198712	Gebäudeüberwachung	-0.04633292
-4.198712	Gefahren-Management-System	-0.04633292
-4.198712	Gegenmaßnahmen	-0.04633292
-3.897682	Gegenüberstellung	-0.1779645
-4.198712	Gender	-0.08421156
-4.198712	Generation	-0.08478913
-4.198712	Generative	-0.08476165
-3.157319	Generierung	-0.4738548
-4.198712	Genre-Klassifizierung	-0.06809099
-4.198712	Genua	-0.04633292
-4.198712	Genussmittelindustrie	-0.04633292
-4.198712	Geo-Visualisierung	-0.06809099
-4.198712	Geodatennetzwerk	-0.07755557
-4.198712	Geolocation	-0.08039685
-4.198712	Geometrie	-0.08379854
-4.198712	Georg	-0.08476165
-4.198712	Geotainment-Systems	-0.07311737
-4.198712	German	-0.08473416
-4.198712	Germany	-0.04633292
-3.897682	Geruchsprädiktion	-0.1896633
-3.499742	Geräte	-0.4924457
-3.897682	Geräten	-0.1521977
-4.198712	Gerätenutzungsdaten	-0.07209976
-4.198712	Gerätewerks	-0.08478913
-4.198712	Geräts	-0.07755557
-4.198712	Gesamtansicht	-0.07311737
-4.198712	Geschaftsfelds	-0.08473416
-4.198712	Geschichten	-0.04633292
-4.198712	Geschwindigkeitsassistenzsystem mit	-0.08478913
-4.198712	Geschäftsbeziehungen	-0.08445919
-4.198712	Geschäftsdomäne	-0.07755557
-4.198712	Geschäftseinheit	-0.08478913
-4.198712	Geschäftserfolg	-0.06809099
-4.198712	Geschäftsfeld	-0.07209976
-4.198712	Geschäftsmodelle	-0.07311737
-3.897682	Geschäftsmodellen	-0.06364107
-4.198712	Geschäftspartner	-0.04633292
-3.897682	Geschäftsprozesse	-0.04150134
-3.721591	Geschäftsprozessen	-0.1451643
-4.198712	Geschäftsverwaltung	-0.08478913
-4.198712	Geschäftsvorfällen	-0.08478913
-4.198712	Gesellschaftsspielen	-0.04633292
-4.198712	Gesetzestexten	-0.04633292
-3.897682	Gesichtern	-0.1834204
-4.198712	Gesichtes	-0.08122899
-3.897682	Gesichtsdetektion	-0.1834204
-4.198712	Gesichtserkennungsverfahren	-0.04633292
-3.721591	Gestaltung	-0.1358704
-4.198712	Gestaltungsoptionen	-0.07311737
-4.198712	Gestaltungssysteme	-0.07209976
-4.198712	Gestaltungsvorschläge	-0.04633292
-4.198712	Gesten-	-0.06372762
-3.897682	Gestenerkennung	-0.05036817
-4.198712	Gesucht	-0.08478913
-4.198712	Gesundheitskarte	-0.07986899
-4.198712	Gesundheitswesen:	-0.08470667
-4.198712	Gewichtung	-0.06809099
-3.897682	Gewährleistung	-0.07207146
-4.198712	GfK	-0.08478913
-4.198712	GfM	-0.08473416
-4.198712	GitLab	-0.08478913
-4.198712	Gitarrenaufnahme	-0.04633292
-4.198712	Gitterreduktionsverfahren	-0.04633292
-3.897682	Glass	-0.04576198
-3.897682	Glasses	-0.06369878
-3.897682	Global	-0.08440418
-4.198712	Globalen	-0.08478913
-2.968263	GmbH	-1.081497
-4.198712	GmbH&CoKG	-0.04633292
-3.897682	Go	-0.04150134
-4.198712	Go/No-Go	-0.08189355
-4.198712	Google	-0.08476165
-4.198712	Gotliebs	-0.08421156
-4.198712	Grafana	-0.04633292
-4.198712	Grafikbibliotheken	-0.07311737
-4.198712	Grafiken	-0.04633292
-4.198712	Grafikzeichenprogramm	-0.04633292
-3.897682	Grafische	-0.08467919
-4.198712	Graph-orientierter	-0.08465169
-4.198712	GraphQL	-0.08407393
-4.198712	Graphdatenbanken	-0.06372762
-4.198712	Graphen	-0.04633292
-4.198712	Graphical	-0.08459669
-3.897682	Graphiken	-0.05996071
-4.198712	Graphische	-0.08478913
-4.198712	Graphischen	-0.08401886
-4.198712	Graphvisualisierung	-0.06809099
-4.198712	Greif-	-0.06372762
-4.198712	Greifen	-0.06372762
-3.721591	Grenzen	-0.03223259
-4.198712	Group	-0.04633292
-4.198712	Großanlagenbau	-0.0845417
-4.198712	Großbank	-0.04633292
-4.198712	Großprojekt	-0.04633292
-4.198712	Großunternehmen	-0.04633292
-4.198712	Großunternehmens	-0.04633292
-3.897682	Grundlage	-0.1739558
-3.721591	Gruppe	-0.09087369
-3.897682	Gruppen	-0.06138439
-4.198712	Gruppierungsalgorithmus	-0.08122899
-4.198712	Größe	-0.07986899
-4.198712	Größen	-0.08258473
-4.198712	Guideline	-0.07311737
-4.198712	Gulp	-0.04633292
-4.198712	Güte	-0.07209976
-4.198712	HA-Clusters	-0.08407393
-3.721591	HANA	-0.04386344
-4.198712	HCM-Systemen	-0.04633292
-4.198712	HDP-Produktionslinie	-0.04633292
-4.198712	HMI-Systeme	-0.04633292
-4.198712	HR-Cloud-Transformation	-0.08341269
-4.198712	HS-Rosenheim	-0.04633292
-4.198712	HTC	-0.08478913
-4.198712	HTML	-0.08478913
-4.198712	HTML-Seiten	-0.07559487
-3.499742	HTML5	-0.009302631
-4.198712	HTML5-basierten	-0.08478913
-3.897682	HTTP	-0.08476166
-4.198712	Hadoop	-0.06372762
-4.198712	Haitec	-0.04633292
-4.198712	Halvotec	-0.08470667
-4.198712	Handballturnieren	-0.04633292
-4.198712	Handelskammern	-0.04633292
-4.198712	Handgestenerkennung	-0.07559487
-3.897682	Handlungsempfehlung	-0.06565636
-4.198712	Handlungsempfehlungen	-0.04633292
-4.198712	Handlungsleitfadens	-0.07559487
-4.198712	Handwerksunternehmen	-0.04633292
-4.198712	Haptic	-0.08478913
-4.198712	Hard-und	-0.08415651
-3.721591	Hardware	-0.06135536
-3.897682	Hardware-Ereignisse	-0.1862616
-4.198712	Haus	-0.04633292
-4.198712	Hausautomatisierung	-0.08379854
-4.198712	Haushaltsbesorgungen	-0.04633292
-4.198712	Head-tracked	-0.08478913
-3.897682	Healthcare	-0.04582211
-4.198712	Heimtextilien	-0.07986899
-4.198712	Helden	-0.08478913
-4.198712	Helligkeitsanpassung	-0.08476165
-4.198712	Helpdesk-System	-0.04633292
-3.721591	Herausforderungen	-0.05955307
-4.198712	Herzratenvariabilität	-0.04633292
-4.198712	Heuristic	-0.04633292
-4.198712	Heuristik	-0.07559487
-2.856289	Hilfe	-0.4396906
-4.198712	Hilfestellung	-0.07311737
-3.596652	Hinblick	-0.7881773
-4.198712	Hinsicht	-0.08122899
-4.198712	Hinweissystems	-0.08258473
-4.198712	HiveQL-Implementierungen	-0.04633292
-4.198712	Hochfrequenztechnik	-0.08478913
-3.897682	Hochschul-Jobbörse	-0.03241869
-4.198712	Hochschulbeziehungen	-0.08415651
-3.157319	Hochschule	-0.3911859
-4.198712	Hochschule-Jobbörse	-0.08437666
-3.596652	Hochschulen	-0.1291018
-4.198712	Hochschuljobbörse	-0.04633292
-4.198712	Hochschulmanagement	-0.08399133
-4.198712	Hochverfügbarkeit	-0.08379854
-4.198712	Hochverfügbarkeitslösung	-0.07311737
-4.198712	Holzbauten	-0.07986899
-4.198712	Home	-0.08470667
-4.198712	HomeRun-Umgebung	-0.04633292
-4.198712	Homecare	-0.08478913
-4.198712	Honorarordnung	-0.07311737
-4.198712	Hosts	-0.07755557
-3.721591	Human	-0.08462419
-4.198712	Hypbrid	-0.08437666
-4.198712	Härtung	-0.06809099
-4.198712	Höhenkarten	-0.08385363
-4.198712	I/O-Fuzzing	-0.08039685
-3.721591	IBM	-0.08470666
-3.897682	ID	-0.1905715
-4.198712	IFS	-0.07986899
-3.897682	IHK	-0.1902414
-4.198712	IKORO	-0.04633292
-4.198712	INF-Community	-0.07209976
-3.721591	ING-DiBa	-0.1517381
-4.198712	IOS	-0.06372762
-4.198712	IOT	-0.08467918
-4.198712	IOT-Plattformanbieter	-0.04633292
-4.198712	IOTA	-0.06372762
-4.198712	IP-basierte	-0.08478913
-4.198712	ISO	-0.08478913
-3.353614	IT	-0.0806189
-4.198712	IT)	-0.04633292
-4.198712	IT-	-0.08478913
-3.897682	IT-Abteilung	-0.06926049
-4.198712	IT-Applikationen	-0.07559487
-4.198712	IT-Arbeitsplätze	-0.08258473
-4.198712	IT-Architektur	-0.08478913
-4.198712	IT-Asset	-0.08429412
-4.198712	IT-Bebauungsplans	-0.07311737
-4.198712	IT-Berechtigungen	-0.06372762
-4.198712	IT-Betrieb	-0.0845417
-4.198712	IT-Betriebsmitteln	-0.07424526
-4.198712	IT-Dienstleister	-0.08341269
-3.721591	IT-Dienstleisters	-0.06797671
-3.897682	IT-Dienstleistungsbranche	-0.1862616
-4.198712	IT-Firma	-0.08341269
-4.198712	IT-Geschäftsprozesse.	-0.04633292
-4.198712	IT-Governance	-0.06372762
-4.198712	IT-Grundschutz-Profils	-0.08407393
-3.897682	IT-Landschaft	-0.03476891
-4.198712	IT-Leistungen	-0.08258473
-4.198712	IT-Leistungsverrechnung	-0.07209976
-4.198712	IT-Management	-0.04633292
-4.198712	IT-Management-Tools	-0.07311737
-4.198712	IT-Migrationen	-0.08258473
-4.198712	IT-Offshoring	-0.06372762
-4.198712	IT-Outsourcing-Konzepts	-0.07311737
-4.198712	IT-Portfoliomanagement	-0.08399133
-4.198712	IT-Projekte	-0.07209976
-4.198712	IT-Projekthaus	-0.04633292
-4.198712	IT-Security	-0.08039685
-4.198712	IT-Serversystemen	-0.04633292
-4.198712	IT-Service-Management-Tool	-0.04633292
-4.198712	IT-Service-Managements	-0.08478913
-4.198712	IT-Sicherheitsarchitektur	-0.07311737
-3.897682	IT-Strategie	-0.1779645
-3.897682	IT-Strategien	-0.1779645
-4.198712	IT-Systemen	-0.04633292
-3.897682	IT-Systemhaus	-0.1779645
-4.198712	IT-Unternehmen	-0.04633292
-4.198712	IT-Unterstützung	-0.07311737
-4.198712	IT-basierte	-0.08478913
-4.198712	IT-basiertes	-0.08478913
-4.198712	IT-gerechten	-0.08448669
-4.198712	IT-gestützten	-0.08478913
-4.198712	IT-gestütztes	-0.08467918
-3.596652	ITIL	-0.1521376
-4.198712	IV	-0.08478913
-4.198712	IV-Abteilung	-0.08294371
-4.198712	Icinga2	-0.07559487
-4.198712	Ideenmanagement:	-0.08473416
-4.198712	Identification	-0.08478913
-3.157319	Identifikation	-0.4863421
-4.198712	Identifizierung	-0.06372762
-3.721591	Identity	-0.08470666
-4.198712	Identity-Management	-0.04633292
-4.198712	Identity-Management-Architekturen	-0.08039685
-4.198712	Ihrer	-0.0840464
-4.198712	Immobilieninseraten	-0.04633292
-4.198712	Immobilienportal	-0.04633292
-3.897682	Immobilienportals	-0.1521977
-3.897682	Immowelt	-0.1900213
-4.198712	Impact-/Story	-0.08478913
-4.198712	Implantationen	-0.04633292
-3.596652	Implementation	-0.1222387
-2.016868	Implementierung	-1.022773
-4.198712	Implementierungen	-0.07755557
-4.198712	Implementierungsanalyse	-0.08467918
-4.198712	Implikation	-0.08122899
-4.198712	Implikationen	-0.07311737
-4.198712	Import	-0.07755557
-4.198712	Importieren	-0.06809099
-3.897682	Improving	-0.08476166
-4.198712	In-Memory-Datenbanken.	-0.04633292
-4.198712	In-Memory-Datenbanksystem	-0.08478913
-4.198712	In-vitro-Diagnostika	-0.04633292
-4.198712	Inbetriebnahme	-0.07311737
-3.897682	Indexierung	-0.02802444
-4.198712	Indikatoren	-0.06372762
-4.198712	Indizierung	-0.06809099
-4.198712	Indoor	-0.08478913
-4.198712	Indoor-Positionsbestimmung	-0.04633292
-3.295622	Industrie	-0.3245998
-4.198712	Industrie-	-0.06372762
-4.198712	Industrieanlagen	-0.04633292
-4.198712	Industrieroboter	-0.04633292
-4.198712	Industrieunternehmen	-0.04633292
-4.198712	Industrieunternehmens.	-0.04633292
-4.198712	Inertial-	-0.06372762
-3.353614	Informatik	-0.105262
-4.198712	Informatik-Absolventen	-0.07986899
-4.198712	Informatikunterricht	-0.07209976
-3.596652	Information	-0.08410145
-3.596652	Informationen	-0.1262069
-4.198712	Informationsdisplay-Systems	-0.04633292
-4.198712	Informationserfassungssystems	-0.06372762
-4.198712	Informationsgewinnung	-0.08258473
-4.198712	Informationsmanagement	-0.08379854
-4.198712	Informationsprozesse	-0.08258473
-4.198712	Informationssystem	-0.07311737
-4.198712	Informationssystemen	-0.04633292
-4.198712	Informationssystems	-0.07311737
-4.198712	Informationssystemsimulators	-0.08407393
-4.198712	Informationstransfer	-0.08122899
-4.198712	Infotainment	-0.08478913
-4.198712	Infrastructure	-0.08478913
-3.420561	Infrastruktur	-0.0494557
-3.897682	IngSoft	-0.1906264
-4.198712	Ingenieure	-0.07755557
-4.198712	Inhalte	-0.07559487
-4.198712	Inhalts-	-0.06372762
-4.198712	Inhaltsanalyse	-0.06809099
-4.198712	Inkrementelle	-0.08476165
-4.198712	Innentüren	-0.08039685
-4.198712	Innovationsmanagement	-0.07559487
-4.198712	Innovationsprozess	-0.04633292
-4.198712	Innovationsverfahren	-0.04633292
-4.198712	Innovative	-0.08478913
-4.198712	Innovator	-0.07311737
-4.198712	Inputverarbeitung	-0.08407393
-4.198712	Ins	-0.07311737
-4.198712	Inserenten	-0.07209976
-4.198712	Inside-Out	-0.08470667
-3.897682	Installation	-0.1695924
-4.198712	Installed-Base	-0.04633292
-4.198712	Instrument	-0.07559487
-2.64241	Integration	-0.4681939
-4.198712	Integrationsarchitektur	-0.07311737
-4.198712	Integrationskonzept	-0.07311737
-4.198712	Integrationstestverfahrens	-0.07311737
-3.084769	Intelligence	-0.09473708
-4.198712	Intelligence-Architektur	-0.04633292
-4.198712	Intelligence-Auswertungen	-0.07986899
-4.198712	Intelligente	-0.08473416
-3.721591	Intelligenz	-0.1038834
-4.198712	Inter-Tag	-0.08478913
-3.897682	InterWatt	-0.02802444
-3.897682	Interaction	-0.07752763
-3.721591	Interaktion	-0.1471441
-4.198712	Interaktionsdesign	-0.07311737
-4.198712	Interaktionsmöglichkeiten	-0.07311737
-3.596652	Interaktive	-0.1685525
-4.198712	Interface	-0.08412899
-3.721591	Interfaces	-0.01466536
-3.897682	Internationalisierung	-0.06462109
-3.353614	Internet	-0.006842956
-4.198712	Internetplattform	-0.08377099
-4.198712	Internetportale	-0.04633292
-4.198712	Internetportals	-0.08385363
-4.198712	Internetpräsenz	-0.04633292
-4.198712	Interpreters	-0.07311737
-3.897682	Interpretieren	-0.1739558
-4.198712	Intervalltraining	-0.04633292
-4.198712	Interventionstools	-0.07559487
-4.198712	Intralogistik	-0.08258473
-4.198712	Intranet	-0.08470667
-3.897682	Intranets	-0.07556681
-4.198712	Intrusion	-0.08473416
-3.897682	IoT	-0.08467919
-4.198712	IoT-	-0.06372762
-4.198712	IoT-Architekturlösung	-0.08385363
-4.198712	IoT-Geräten	-0.08294371
-4.198712	IoT-Komponenten	-0.08039685
-4.198712	Is	-0.08478913
-4.198712	Isovist-Merkmalen	-0.04633292
-4.198712	IssWas	-0.08478913
-4.198712	JIRA	-0.07559487
-4.198712	JMS	-0.08478913
-4.198712	JPA	-0.07311737
-4.198712	JQuery-Framework	-0.04633292
-4.198712	JQuery-Mobile	-0.08122899
-4.198712	JRC-Framework	-0.04633292
-4.198712	JS	-0.04633292
-3.499742	Java	-0.03973652
-4.198712	Java-Aktualisierung	-0.07755557
-4.198712	Java-Basistechnologie	-0.07311737
-4.198712	Java-Bibliothek	-0.04633292
-4.198712	Java-Byte	-0.08189355
-4.198712	Java8	-0.08478913
-3.499742	JavaEE	-0.08418404
-4.198712	JavaME	-0.08399133
-3.596652	JavaScript	-0.1290829
-4.198712	JavaScript-Anwendungsframeworks	-0.04633292
-4.198712	Javascript	-0.04633292
-4.198712	Jenkins	-0.04633292
-4.198712	Jira	-0.04633292
-4.198712	Job-Suche	-0.04633292
-4.198712	JobRouter	-0.04633292
-4.198712	Jobbörse	-0.04633292
-4.198712	Jobportal	-0.04633292
-4.198712	Jobrolle	-0.08470667
-4.198712	Jobsteuerung	-0.08258473
-4.198712	Johan	-0.08478913
-4.198712	Jukebox	-0.04633292
-3.897682	KG	-0.1521977
-4.198712	KI	-0.07311737
-4.198712	KI-basierten	-0.08478913
-3.721591	KMU	-0.03195331
-3.721591	KNX	-0.06355447
-3.897682	KPIs	-0.06803387
-4.198712	Kalibriermomenten	-0.08412899
-4.198712	Kalibrierung	-0.06809099
-3.897682	Kalkulation	-0.04615271
-4.198712	Kameraparametern	-0.08379854
-4.198712	Kandidaten:	-0.08476165
-4.198712	Kann	-0.08324723
-4.198712	Kanzlei	-0.08478913
-4.198712	Kanzlei-Rechnungswesen	-0.04633292
-4.198712	Karte	-0.04633292
-3.897682	Karten	-0.1521977
-4.198712	Karten.	-0.04633292
-4.198712	Kartenausschnitten	-0.07311737
-4.198712	Kartenbasierten	-0.08478913
-4.198712	Kartendienst	-0.04633292
-4.198712	Kartenerstellung	-0.08122899
-3.897682	Kartographierung	-0.1906264
-4.198712	Kaskadierung	-0.08476165
-4.198712	Kassendaten	-0.04633292
-4.198712	Kassensystemen	-0.08039685
-4.198712	Kassensystems	-0.07424526
-4.198712	Katalogerstellung	-0.07986899
-3.897682	Kategorien	-0.1834204
-4.198712	Kategorisierung	-0.06809099
-4.198712	Kaufabschlusses	-0.07755557
-4.198712	Kaufdowns	-0.08385363
-4.198712	Kaufverhalten	-0.08294371
-4.198712	Kennzahlen	-0.07559487
-4.198712	Kennzahlenanalyse	-0.07311737
-3.596652	Kennzahlensystems	-0.1087139
-4.198712	Kernbankensystem	-0.04633292
-4.198712	Key	-0.08465169
-4.198712	Key-Value-Datenbanken	-0.04633292
-4.198712	Kinect	-0.08478913
-4.198712	Kinect-Sensor	-0.0845417
-4.198712	Kinematik	-0.06809099
-4.198712	Kirchengemeindeema:	-0.04633292
-4.198712	Klanglandschaften	-0.04633292
-4.198712	Klasse	-0.04633292
-4.198712	Klassenbibliothek	-0.07311737
-3.596652	Klassifikation	-0.09583727
-3.596652	Klassifizierung	-0.2498934
-4.198712	Klassisches	-0.08478913
-3.897682	Klinikum	-0.1902414
-4.198712	Klothoiden	-0.04633292
-4.198712	Knochen	-0.07311737
-3.897682	Knowledge	-0.1905989
-4.198712	Kodierung	-0.07424526
-4.198712	Kollaborationsplattform	-0.08122899
-4.198712	Kollaborationssysteme	-0.04633292
-4.198712	Kollaborationswerkzeug	-0.08418404
-4.198712	Kombination	-0.07986899
-4.198712	Kommentar	-0.08415651
-4.198712	Kommentarfunktion	-0.07311737
-4.198712	Kommissionierung	-0.08039685
-4.198712	Kommissionierungssystems	-0.04633292
-3.897682	Kommunikation	-0.07539833
-4.198712	Kommunikations-	-0.06372762
-4.198712	Kommunikationsframeworks	-0.07311737
-4.198712	Kommunikationsplattform	-0.08385363
-4.198712	Kommunikationsprotokolls	-0.07559487
-4.198712	Kommunikationsprozesses	-0.07986899
-4.198712	Kommunikationsschnittstelle	-0.08445919
-4.198712	Kommunikationsstandards	-0.08476165
-4.198712	Komparative	-0.08465169
-4.198712	Kompatibilitätsanalyse	-0.08106268
-4.198712	Kompetenzen	-0.08412899
-4.198712	Kompetenzen,	-0.08478913
-4.198712	Kompetenzentwicklung	-0.07755557
-4.198712	Komponente	-0.07559487
-3.897682	Komponenten	-0.03624673
-4.198712	Komponentenmodells	-0.07311737
-4.198712	Konception	-0.06372762
-4.198712	Kondenauftragserstellung	-0.07986899
-3.295622	Konfiguration	-0.3793677
-3.897682	Konfigurationen	-0.03353354
-4.198712	Konfigurations-Tools	-0.07311737
-4.198712	Konfigurationsdienstes	-0.04633292
-4.198712	Konfigurationsmöglichkeit	-0.07559487
-4.198712	Konfigurationsoberfläche	-0.07311737
-4.198712	Konsolidierung	-0.07424526
-4.198712	Konstruktionsdetails	-0.04633292
-4.198712	Konstruktionssoftware	-0.07311737
-4.198712	Konsumenten	-0.08039685
-4.198712	Kontaktverwaltung	-0.07986899
-3.022621	Kontext	-0.246313
-4.198712	Kontinuierlichen	-0.08478913
-4.198712	Kontrolle	-0.07755557
-4.198712	Kontrollsystem	-0.07311737
-2.800772	Konzept	-0.8353764
-3.897682	Konzepten	-0.06364107
-4.198712	Konzepterstellung	-0.07311737
-3.721591	Konzeptes	-0.1312777
-1.76896	Konzeption	-1.627517
-3.295622	Konzeption,	-0.1181482
-3.897682	Konzeptionelle	-0.057597
-2.919958	Konzeptionierung	-0.6493946
-3.119531	Konzepts	-1.247711
-4.198712	Konzerndivision	-0.08478913
-3.721591	Konzipierung	-0.1190746
-3.721591	Kooperation	-0.3714988
-3.897682	Koordination	-0.06004801
-4.198712	Korrektur	-0.08478913
-4.198712	Kosmetikstudios	-0.04633292
-4.198712	Kosten	-0.06372762
-4.198712	Kosten-Nutzen-Analyse	-0.07559487
-4.198712	Kostenoptimierung	-0.04633292
-4.198712	Kostenplanung	-0.04633292
-4.198712	Kostentransparenz(Bill	-0.08374344
-4.198712	Kotlin	-0.08476165
-4.198712	Krankheitsbildern	-0.08258473
-4.198712	Krebs	-0.06372762
-4.198712	Kreditkarten-	-0.08451419
-4.198712	Kreuzvalidierung	-0.08467918
-3.897682	Kritische	-0.08470668
-4.198712	Kubernetes	-0.06372762
-4.198712	Kunden	-0.07209976
-4.198712	Kunden-	-0.06372762
-4.198712	Kundenansprache	-0.07311737
-4.198712	Kundenauftragssystems	-0.07311737
-3.897682	Kundenbefragung	-0.1695924
-4.198712	Kundendaten	-0.08294371
-4.198712	Kundendatenpools	-0.04633292
-4.198712	Kundenfeedback	-0.08039685
-4.198712	Kundeninteraktionen	-0.08294371
-4.198712	Kundenkommunikation	-0.07311737
-4.198712	Kundenlösungen:	-0.08465169
-4.198712	Kundenreviews	-0.08379854
-4.198712	Kundensegmentierung	-0.08379854
-3.897682	Kundenservice	-0.1521977
-3.897682	Kundensystemen	-0.1779645
-4.198712	Kundenverhaltens	-0.04633292
-3.897682	Kundenverwaltung	-0.02323704
-3.897682	Kursberechnungen	-0.1695924
-4.198712	Kurwenwarnung	-0.04633292
-4.198712	Küche	-0.04633292
-4.198712	Kühlschranks	-0.04633292
-3.897682	Kündigung	-0.1739558
-4.198712	L4-Basierten	-0.08476165
-4.198712	LED-Leuchtmittel	-0.04633292
-4.198712	LKW-Cockpits	-0.08412899
-4.198712	LKW-Komponenten	-0.08412899
-4.198712	Laborautomatisierungssoftware	-0.08399133
-4.198712	Laborgeräten	-0.07986899
-4.198712	Ladezeitoptimierung	-0.06372762
-4.198712	Lagerplatzvergabe:	-0.08451419
-4.198712	Lagerreorganisation	-0.08039685
-4.198712	Landwirtschaft:	-0.07897853
-4.198712	Langstreckenzüge	-0.04633292
-3.420561	Language	-0.07294018
-4.198712	Laser-Entfernungssensoren	-0.04633292
-4.198712	Lasergravur-Verfahrens	-0.04633292
-4.198712	Lasermessungen	-0.07311737
-4.198712	Laserscans	-0.07311737
-4.198712	Lastmodellierung	-0.07311737
-4.198712	Lasttests	-0.04633292
-4.198712	Lasttesttools	-0.07311737
-4.198712	Lastverschiebung	-0.08379854
-4.198712	Laufzeitindikatoren	-0.06809099
-4.198712	Laufzeitumgebungen	-0.06809099
-4.198712	Layoutanpassungen	-0.04633292
-4.198712	Layoutvergleich	-0.08467918
-4.198712	Lean	-0.08478913
-2.897682	Learning	-0.3379572
-4.198712	Learning-Ansatzes	-0.08377099
-4.198712	Learning-Anwendungen	-0.04633292
-4.198712	Learning-Systemen	-0.04633292
-4.198712	Learning:	-0.08423908
-4.198712	Ledger	-0.08470667
-4.198712	Leerbehälterverwaltung	-0.07311737
-4.198712	Legacy	-0.08478913
-4.198712	Legacy-Infrastruktur	-0.08415651
-3.897682	Legacy-Systemen	-0.04092401
-4.198712	Legacy-Systems	-0.08039685
-4.198712	Legacysystems	-0.04633292
-4.198712	Lehr-	-0.06372762
-3.897682	Lehre	-0.04092401
-4.198712	Lehre,	-0.08478913
-4.198712	Lehreinheit	-0.07311737
-4.198712	Lehreinheiten	-0.07559487
-4.198712	Lehrveranstaltung	-0.08478913
-3.897682	Lehrveranstaltungen	-0.04543109
-4.198712	Leistungserhöhung	-0.08039685
-4.198712	Leitfaden	-0.04633292
-4.198712	Lenkgeschwindigkeit,	-0.0845417
-4.198712	Leoni	-0.08415651
-4.198712	Lern-	-0.06372762
-4.198712	Lernen	-0.04633292
-3.897682	Lernende	-0.1906264
-3.897682	Lernens	-0.1521977
-4.198712	Lernplattform	-0.04633292
-3.084769	Lernverfahren	-0.529061
-4.198712	Lesbarkeit	-0.08473416
-4.198712	Leuchtenvarianten	-0.0845417
-4.198712	Level	-0.08476165
-4.198712	Levelgraph-Verfahren	-0.04633292
-4.198712	Library	-0.08478913
-4.198712	Lichtquellen	-0.08039685
-4.198712	Lieferschein	-0.08429412
-4.198712	Lieferungen	-0.08258473
-3.897682	Lifecycle	-0.1901589
-3.721591	Liferay	-0.1137893
-4.198712	Lifestyle-Portal	-0.07986899
-4.198712	Limesurvey	-0.07559487
-4.198712	Linde	-0.08415651
-4.198712	Liniennummer	-0.06372762
-4.198712	Linux	-0.08122899
-4.198712	Linux-Kernel	-0.04633292
-4.198712	Linux-Server-Infrastruktur	-0.07311737
-4.198712	Linux-Systeme	-0.08451419
-4.198712	Linuxserver	-0.08039685
-4.198712	Live	-0.08470667
-4.198712	Live-Debugging-Schnittstelle	-0.04633292
-4.198712	Lizenzierung	-0.06809099
-4.198712	Lizenzierungskette	-0.07755557
-4.198712	Lizenzmanagement	-0.07311737
-4.198712	Lizenzverwaltung	-0.04633292
-4.198712	Load-Balancing	-0.07986899
-4.198712	Log-File	-0.08473416
-4.198712	Log-Frameworks	-0.07986899
-3.897682	Logdaten	-0.02323704
-4.198712	Logdaten-Lösung	-0.08122899
-3.897682	Logging	-0.07306091
-4.198712	Loggingkomponenten	-0.06372762
-4.198712	Logistik	-0.08407393
-4.198712	Logistik-Sprachassistenten	-0.07311737
-4.198712	Logistikbranche	-0.04633292
-4.198712	Lohn	-0.08039685
-4.198712	Lohnabrechnungssystemen	-0.08258473
-3.897682	Lokalisierung	-0.04615271
-4.198712	Lokalisierungssystemen	-0.04633292
-4.198712	Loopstation	-0.07559487
-4.198712	Low-Code-Plattformen	-0.07311737
-4.198712	Low-Level	-0.08476165
-4.198712	Low-Touch-Tickets	-0.07311737
-4.198712	Luftfahrtunternehmen	-0.04633292
-4.198712	Lumira	-0.04633292
-4.198712	Läufer	-0.08377099
-3.295622	Lösung	-0.05593225
-3.499742	Lösungen	-0.01353334
-4.198712	Lösungsansatz	-0.07311737
-4.198712	Lösungskonzepten	-0.08385363
-4.198712	Lösungsplattform	-0.07311737
-4.198712	M2M-Anwendungsszenarien	-0.08473416
-4.198712	MDA	-0.07559487
-4.198712	MEMO	-0.06372762
-3.897682	MES	-0.04615271
-4.198712	MFC	-0.04633292
-3.596652	MFS	-0.1681185
-3.897682	MID	-0.1902139
-4.198712	MILS	-0.08478913
-4.198712	MINT	-0.08122899
-4.198712	MINT-Berufen	-0.08341269
-4.198712	MINT-Studiengängen	-0.08379854
-4.198712	MINT-Studierenden	-0.08476165
-4.198712	MINT-Studium	-0.04633292
-4.198712	MR	-0.08470667
-3.897682	MS	-0.08476166
-4.198712	Machbarkeit	-0.06372762
-3.721591	Machbarkeitsstudie	-0.04147096
-3.022621	Machine	-0.783154
-4.198712	Machine-Learning-Modelle	-0.07755557
-4.198712	Magazins	-0.07311737
-3.596652	Magento	-0.09571707
-4.198712	Magento2	-0.08478913
-4.198712	Mailserversystems	-0.08122899
-4.198712	Mainframe-Datenbank	-0.08478913
-4.198712	Mainframes.	-0.04633292
-4.198712	Mainframeumfeld	-0.07209976
-4.198712	Maintenance-Prozess	-0.07986899
-4.198712	Make-or-Buy	-0.04633292
-2.919958	Management	-0.01849774
-4.198712	Management-Dashboards	-0.08258473
-4.198712	Management-System	-0.04633292
-4.198712	Managemententscheidungen	-0.04633292
-4.198712	Managements	-0.06809099
-4.198712	Managementsystems	-0.07311737
-4.198712	Manager	-0.07311737
-3.721591	Manipulation	-0.1356991
-4.198712	Manipulationen	-0.08399133
-4.198712	Map-Matching	-0.07986899
-4.198712	Mapping	-0.07755557
-4.198712	Markern	-0.04633292
-3.499742	Marketing	-0.0788671
-4.198712	Marketplaces	-0.07311737
-3.897682	Markov	-0.1906264
-4.198712	Markt-	-0.06372762
-4.198712	Marktanalyse	-0.08478913
-4.198712	Marktes	-0.08451419
-4.198712	Marktforschungsplattform	-0.0845417
-4.198712	Marktplatzes	-0.07311737
-3.897682	Marktsituation	-0.1521977
-4.198712	Maschine	-0.0842666
-4.198712	Maschinelle	-0.08451419
-4.198712	Maschinelles	-0.08445919
-3.897682	Maschinen	-0.03839291
-4.198712	Maschinenmeldungen	-0.0845692
-4.198712	Maschinensteuerung	-0.04633292
-4.198712	Massendaten	-0.04633292
-4.198712	Massendatenübermittlungssystem.	-0.04633292
-4.198712	Material:	-0.08478913
-3.897682	Materialflusses	-0.03353354
-3.897682	Materialflusstechnologien	-0.1897735
-4.198712	Materialien	-0.08379854
-4.198712	Materialsammlung	-0.06372762
-4.198712	Materialversorgung	-0.08106268
-4.198712	Maßnahmen	-0.07559487
-3.897682	Mechanismen	-0.06817667
-3.596652	Media	-0.04564167
-4.198712	Media-Concept	-0.08478913
-4.198712	MediaMarktSaturn	-0.04633292
-3.897682	Mediaberatersystem	-0.1857338
-4.198712	Medical	-0.08478913
-3.721591	Medien	-0.02949412
-4.198712	Medizintechnikindustrie	-0.04633292
-4.198712	Meeresverschmutzung	-0.04633292
-4.198712	Meetings	-0.04633292
-3.897682	Mehrkernfähige	-0.1904615
-4.198712	Mehrmaschinentests	-0.06372762
-4.198712	Mehrnutzer	-0.08476165
-4.198712	Mehrsprachigkeit	-0.06809099
-4.198712	Mehrwerts	-0.07311737
-4.198712	Mensch-Maschine-Schnittstelle	-0.07311737
-3.295622	Menschen	-0.1394306
-4.198712	Mercedes-Benz	-0.08478913
-4.198712	Mercury	-0.08476165
-4.198712	Merkmalsbasierte	-0.08478913
-4.198712	Merkmalsextraktion	-0.08379854
-4.198712	Messaging	-0.08443168
-4.198712	Messanwendung	-0.07559487
-3.721591	Messdaten	-0.0336263
-4.198712	Messen	-0.08294371
-4.198712	Messenger-Applikation	-0.04633292
-4.198712	Messestand-Verwaltungssystems	-0.04633292
-4.198712	Messsoftware	-0.04633292
-4.198712	Messstreckenintegration	-0.07755557
-4.198712	Messsysteme	-0.04633292
-4.198712	Messung	-0.06372762
-4.198712	Messverfahrens	-0.07311737
-4.198712	Messwerten	-0.07209976
-3.897682	Metadaten	-0.07652032
-4.198712	Metadaten-Codegenerators	-0.07559487
-3.721591	Methode	-0.03612375
-3.084769	Methoden	-0.1527855
-4.198712	Methodenbaukastens	-0.08377099
-4.198712	Methodenwissen	-0.08379854
-4.198712	Methodik	-0.08473416
-4.198712	Methodische	-0.08410146
-3.721591	Metriken	-0.03030501
-4.198712	Michael	-0.08478913
-3.897682	Microcontroller	-0.08192123
-3.596652	Microservice	-0.1341738
-3.897682	Microservice-Referenzarchitektur	-0.06364107
-3.721591	Microservices	-0.03223259
-2.836984	Microsoft	-0.3455463
-4.198712	Middle-Tier	-0.08437666
-3.596652	Middleware	-0.03120768
-3.24447	Migration	-0.3635215
-4.198712	Mikro-Segmentierung	-0.08039685
-4.198712	Mikrocontroller	-0.06372762
-4.198712	Mindmaps	-0.04633292
-4.198712	Mindmaps"	-0.04633292
-3.721591	Mining	-0.06740493
-4.198712	Miningkonzepts	-0.07311737
-3.897682	Misserfolgsfaktoren	-0.190544
-4.198712	Mitarbeitern	-0.07755557
-4.198712	Mitarbeiterverwaltung	-0.06372762
-4.198712	Mitteilungssystems	-0.04633292
-4.198712	Mittel	-0.08106268
-3.897682	Mittelfranken	-0.1521977
-3.897682	Mittelstand	-0.04630289
-4.198712	Mitwirkung	-0.08478913
-3.499742	Mobile	-0.1669858
-4.198712	Mobile-Apps	-0.04633292
-4.198712	Mobilität	-0.08039685
-4.198712	Modbus-Protokoll	-0.08258473
-4.198712	Mode	-0.08467918
-3.897682	Model	-0.08476166
-4.198712	Model-Based	-0.0840464
-3.721591	Modeling	-0.06306353
-3.897682	Modellbasierte	-0.1905715
-3.897682	Modellen	-0.08352298
-4.198712	Modellfahrzeug	-0.04633292
-4.198712	Modellfahrzeuges	-0.04633292
-4.198712	Modellieren	-0.07424526
-3.084769	Modellierung	-0.08317991
-4.198712	Modellierungsrichtlinien	-0.08039685
-4.198712	Modellierungsschritte	-0.04633292
-4.198712	Modellierungstool	-0.04633292
-4.198712	Modellieung	-0.07311737
-3.721591	Modells	-0.07178833
-4.198712	Modern	-0.08476165
-4.198712	Modernisierung	-0.06809099
-4.198712	Modifikatorstack	-0.04633292
-4.198712	Modulares	-0.08412899
-3.897682	Modularisierung	-0.1695924
-3.897682	Moduls	-0.07452679
-3.897682	Molekülstrukturen	-0.1899938
-4.198712	MongoDB	-0.07755557
-3.24447	Monitoring	-0.04440673
-4.198712	Monitoring-Frameworks	-0.07311737
-4.198712	Monitoringdaten	-0.08039685
-4.198712	Monokulare	-0.08478913
-4.198712	Montageband	-0.04633292
-4.198712	Morphings	-0.04633292
-4.198712	Motivationssteigerung	-0.08039685
-4.198712	Mountainbikes	-0.06372762
-4.198712	MovieLens-Datensatzes	-0.04633292
-4.198712	Multi-Channel	-0.0845417
-3.897682	Multi-Modell-Datenbankkonzepten	-0.1814597
-4.198712	Multi-Routing	-0.04633292
-4.198712	Multi-User-Webanwendung	-0.04633292
-4.198712	Multicopters	-0.08462419
-4.198712	Multideep	-0.08478913
-4.198712	Multikernprozessor	-0.04633292
-4.198712	Multimedia-Systems	-0.07986899
-4.198712	Multiplattform-Applikation	-0.07986899
-4.198712	Multiprojektmanagementsoftware	-0.07986899
-4.198712	Multiserver-Installationen	-0.06809099
-3.897682	Multitouch-Interaktionen	-0.1870938
-4.198712	Music	-0.08476165
-4.198712	Musik-Streaming	-0.08476165
-4.198712	Musikerkennungssoftware:	-0.08478913
-4.198712	Musikwiedergabedienstes	-0.07311737
-4.198712	Musterarchitektur	-0.07311737
-3.897682	Mustererkennung	-0.03839291
-4.198712	Mustern	-0.08451419
-4.198712	Mustersprache	-0.07559487
-3.897682	MySQL	-0.04549127
-4.198712	Myo-Armband	-0.07755557
-4.198712	Möglichkeit	-0.07559487
-3.596652	Möglichkeiten	-0.08862713
-3.596652	N-ERGIE	-0.04552134
-4.198712	N-Ergie	-0.08415651
-3.420561	NAV	-0.355385
-4.198712	NB-IoT-Technik	-0.08039685
-3.897682	NG-Schemas	-0.1521977
-4.198712	NLP-Methoden	-0.08473416
-4.198712	NVIDIA-Tools	-0.08478913
-4.198712	Nachbearbeitung	-0.06809099
-4.198712	Nachladbarkeit	-0.06372762
-4.198712	Nachladen	-0.08467918
-4.198712	Nachrichten	-0.08039685
-3.897682	Nachrichtenzentrale	-0.1789822
-4.198712	Nachvollziehbarkeit	-0.06809099
-4.198712	Nachweispflicht	-0.07209976
-4.198712	Nahrungs-	-0.06372762
-3.721591	Name	-0.1358704
-3.897682	Navigation	-0.02323704
-4.198712	Navigations-Patterns	-0.08385363
-4.198712	Navigationskartendarstellungen	-0.04633292
-4.198712	Navigationsverfahren	-0.07311737
-4.198712	Negativ-Kommissionierung	-0.08039685
-4.198712	Neos	-0.04633292
-4.198712	Neoverschlüsselung	-0.08478913
-4.198712	NetWeaver	-0.08478913
-3.721591	Network	-0.04579203
-4.198712	Networking	-0.04633292
-3.295622	Networks	-0.3115517
-4.198712	Networks"	-0.04633292
-3.897682	Netz	-0.07142003
-4.198712	Netzanschlussprozesses	-0.04633292
-3.24447	Netze	-0.2261447
-3.721591	Netzen	-0.1085607
-3.721591	Netzes	-0.03994989
-4.198712	Netzes.	-0.04633292
-4.198712	Netzparametern	-0.08039685
-3.420561	Netzwerk	-0.03964181
-4.198712	Netzwerk-Access-Bereich	-0.04633292
-4.198712	Netzwerkadministration	-0.04633292
-4.198712	Netzwerkanalysen	-0.08039685
-4.198712	Netzwerke	-0.08039685
-4.198712	Netzwerken	-0.04633292
-4.198712	Netzwerkgraphen	-0.07424526
-4.198712	Netzwerkplänen	-0.04633292
-4.198712	Netzwerkschnittstelle	-0.08415651
-4.198712	Netzwerktopologie	-0.04633292
-4.198712	Netzwerkvisualisierung	-0.07424526
-3.897682	Neudörffers	-0.08476166
-4.198712	Neufahrzeuge.	-0.04633292
-3.420561	Neukonzeption	-0.1435537
-3.897682	Neukunden	-0.1521977
-4.198712	Neukundenbefragungen	-0.07755557
-4.198712	Neukundenprojekte	-0.07986899
-3.499742	Neural	-0.702671
-4.198712	Neuronale	-0.0845692
-3.897682	Neuronalen	-0.08470668
-3.721591	Neuronaler	-0.1521783
-4.198712	News	-0.08379854
-4.198712	News-Applikation	-0.04633292
-4.198712	Next	-0.08478913
-4.198712	Niederlassungen	-0.07424526
-3.596652	NoSQL	-0.09574713
-4.198712	NoSQL-Datenbank	-0.04633292
-4.198712	Node.js	-0.06372762
-4.198712	Norm	-0.08478913
-4.198712	Notation	-0.08451419
-4.198712	Notenerkennung	-0.08379854
-4.198712	Notizverwaltungsanwendung	-0.07311737
-4.198712	Now	-0.08407393
-4.198712	Nutzbarmachung	-0.06809099
-3.721591	Nutzen	-0.003905959
-4.198712	Nutzerbefragung	-0.04633292
-4.198712	Nutzerverhaltens	-0.04633292
-3.198712	Nutzung	-0.191955
-4.198712	Nutzungsdaten	-0.08122899
-4.198712	Nutzungskosten	-0.07755557
-4.198712	Nutzungsverhaltens	-0.06809099
-4.198712	NÜRNBERGER	-0.08476165
-2.994592	Nürnberg	-0.4187143
-4.198712	Nürnberg."	-0.04633292
-4.198712	Nürnberger	-0.08476165
-4.198712	Nützlichkeit,	-0.08473416
-4.198712	OBASMI	-0.04633292
-4.198712	OBD2	-0.06372762
-4.198712	OCR	-0.08473416
-4.198712	OCR-,und	-0.08478913
-4.198712	OEM	-0.04633292
-3.897682	OGEMA	-0.04618275
-4.198712	OMR-Algorithmen	-0.04633292
-4.198712	OPC	-0.08478913
-4.198712	OR-Mapper	-0.04633292
-4.198712	OS	-0.08478913
-4.198712	OSA-Portals	-0.07209976
-4.198712	OTDR-Daten	-0.04633292
-4.198712	OXID	-0.06372762
-4.198712	Obdachlose	-0.04633292
-3.596652	Oberfläche	-0.1010635
-4.198712	Oberflächen	-0.04633292
-4.198712	Oberflächen-	-0.06372762
-4.198712	Object-Storage-Systeme	-0.04633292
-4.198712	Objective-C	-0.08465169
-4.198712	Objects	-0.04633292
-3.499742	Objekte	-0.1545131
-4.198712	Objekten	-0.07986899
-3.596652	Objekterkennung	-0.1215313
-4.198712	Objekterkennung.	-0.04633292
-4.198712	Objekterkennungssystem	-0.07986899
-4.198712	Odoo	-0.04633292
-4.198712	Offline	-0.08478913
-4.198712	Offline-Reporting	-0.07755557
-4.198712	Ohm	-0.04633292
-4.198712	Ohmquiz	-0.08407393
-4.198712	Okklusionspflasters	-0.04633292
-4.198712	On-Premise-Produkten	-0.08415651
-4.198712	OnDemand-Provisioning	-0.06809099
-4.198712	One	-0.07559487
-4.198712	One-Click-Mechanismus	-0.07559487
-3.24447	Online	-0.3010049
-4.198712	Online-Anwendungen	-0.04633292
-4.198712	Online-Bakings	-0.08122899
-4.198712	Online-Bewertungen	-0.06809099
-4.198712	Online-Hebamme	-0.04633292
-4.198712	Online-Marktplatz	-0.08377099
-4.198712	Online-Modehandel.	-0.04633292
-4.198712	Online-Navigationskomponente	-0.04633292
-4.198712	Online-Portals	-0.07311737
-4.198712	Online-Schlafberatung	-0.04633292
-4.198712	Online-Self-Assesments	-0.07209976
-4.198712	Online-Services	-0.06372762
-4.198712	Online-Stellenmarkt	-0.04633292
-4.198712	Online-Werbeanzeigen	-0.04633292
-4.198712	Onlinemarketing	-0.08476165
-4.198712	Onlinereiseportalen	-0.04633292
-4.198712	Onlineshops	-0.04633292
-4.198712	Onsite	-0.08478913
-4.198712	Ontologien	-0.08407393
-3.353614	Open	-0.4043165
-4.198712	Open-Source-Technologien	-0.04633292
-4.198712	OpenCL-Implementierung	-0.07311737
-4.198712	OpenCV	-0.08122899
-4.198712	OpenGL	-0.04633292
-4.198712	OpenID	-0.08470667
-4.198712	OpenSource	-0.08473416
-4.198712	OpenXML	-0.08294371
-4.198712	Openness	-0.04633292
-4.198712	Operating	-0.08465169
-3.897682	Operation	-0.190489
-4.198712	Operations	-0.08478913
-4.198712	Optical	-0.08478913
-4.198712	Optimale	-0.08478913
-4.198712	Optimierers	-0.08294371
-2.693562	Optimierung	-0.4546741
-4.198712	Optimierungsmaßnahmen	-0.04633292
-4.198712	Optimierungspotenzialen	-0.08258473
-4.198712	Optimierungssolver	-0.04633292
-3.499742	Optimization	-0.07469124
-4.198712	Optimized	-0.08478913
-4.198712	Oracle	-0.08470667
-4.198712	Orchestrierung	-0.06809099
-4.198712	Order	-0.08478913
-3.721591	Organisation	-0.1274227
-3.897682	Organisationen	-0.04150134
-4.198712	Organizing	-0.08399133
-4.198712	Orientierung	-0.08478913
-4.198712	Ortsbezogene	-0.08382609
-4.198712	Ortserfassung	-0.04633292
-4.198712	Ortung	-0.04633292
-4.198712	Ortungstechnologien	-0.08258473
-4.198712	Out-of-the-Box	-0.08476165
-4.198712	Outdoorführer	-0.04633292
-3.897682	Outsourcing	-0.0846242
-4.198712	Outsourcing-Kontext	-0.08467918
-4.198712	Outsourcing:	-0.08476165
-4.198712	Ozeanen	-0.08341269
-4.198712	PC	-0.04633292
-3.499742	PHP	-0.08521827
-4.198712	PHP-Frameworks	-0.08478913
-4.198712	PHP-basierten	-0.08478913
-4.198712	PI.	-0.04633292
-4.198712	PKI	-0.07986899
-3.897682	PLM	-0.06366992
-4.198712	PLM-	-0.06372762
-4.198712	PPM	-0.04633292
-4.198712	PPTX-Dateien	-0.04633292
-4.198712	PRINCE	-0.08478913
-4.198712	PSD2	-0.04633292
-4.198712	PaaS-Umgebung	-0.04633292
-4.198712	Pakethistorie	-0.08379854
-4.198712	Paketierung	-0.06372762
-4.198712	Pan-Tilt-Zoom	-0.08478913
-4.198712	Panorama	-0.08399133
-4.198712	Panorama-Endoskopen	-0.04633292
-4.198712	Parallelisieren	-0.06809099
-4.198712	Parametern	-0.08258473
-4.198712	Parametrisierung	-0.07209976
-4.198712	Paricon	-0.08478913
-4.198712	Part	-0.08478913
-4.198712	Passwortverwaltung	-0.07311737
-3.721591	Pattern	-0.3762815
-3.721591	Patterns	-0.09087369
-4.198712	PayPal-Zahlungen	-0.08415651
-4.198712	Payment-Lösung	-0.07311737
-4.198712	Payments	-0.04633292
-4.198712	Peer-to-Peer	-0.08478913
-4.198712	Penetration	-0.08470667
-3.897682	Pepper	-0.1521977
-3.499742	Performance	-0.07649229
-4.198712	Performance-Analyse	-0.08478913
-4.198712	Performanceanalyse	-0.06372762
-3.721591	Performanceoptimierung	-0.02547982
-3.897682	Performancesteigerung	-0.1779645
-4.198712	Performancetests	-0.08122899
-4.198712	Performanzanalyse	-0.04633292
-4.198712	Persistenzschicht	-0.08294371
-4.198712	Personal	-0.08478913
-4.198712	Personal-Food-Management-Systems	-0.04633292
-4.198712	Personality	-0.08473416
-4.198712	Personalverwaltung	-0.07311737
-3.721591	Personalwirtschaft	-0.04250225
-4.198712	Personalwirtschaftssysteme	-0.04633292
-4.198712	Personendaten	-0.04633292
-4.198712	Perspectives	-0.08374344
-4.198712	Pfaderkennung	-0.06809099
-4.198712	Pflegedaten	-0.04633292
-4.198712	Phantomen	-0.0845692
-4.198712	Phone	-0.08478913
-4.198712	Photovoltaik-Felds	-0.08379854
-4.198712	Photovoltaik-Freiflächenanlage	-0.08407393
-4.198712	Physically-based	-0.08478913
-4.198712	Pi	-0.04633292
-4.198712	Pick-by-Light-Emulationssoftware	-0.08258473
-4.198712	Pipeline	-0.08445919
-4.198712	Pipelines	-0.04633292
-4.198712	Pipes	-0.08434915
-4.198712	Pivotal-Container-Services	-0.07559487
-3.499742	Planung	-0.493378
-3.897682	Planung,	-0.07438605
-4.198712	Planungsänderungen	-0.08379854
-4.198712	Plastikmüll	-0.07755557
-4.198712	Platform	-0.07311737
-4.198712	Platformen	-0.08465169
-3.198712	Plattform	-0.1371231
-3.721591	Plattformen	-0.3379627
-4.198712	Plausibilität	-0.07209976
-4.198712	Plug	-0.08341269
-4.198712	Plugin-Architektur	-0.04633292
-4.198712	Pluginkonzept	-0.07311737
-3.897682	Plugins	-0.1814597
-4.198712	Plugins-Generators	-0.07311737
-4.198712	Plus-Energie	-0.08478913
-4.198712	Plus-Energie-Aus	-0.08122899
-4.198712	Points	-0.08258473
-4.198712	Polarion	-0.08476165
-4.198712	Polygonnetze	-0.04633292
-4.198712	Pool	-0.08467918
-3.897682	Portal	-0.0798412
-4.198712	Portal-Lösungen	-0.07755557
-4.198712	Portal-Software	-0.08473416
-4.198712	Portallösung	-0.08039685
-4.198712	Portals	-0.07559487
-3.499742	Portierung	-0.1908592
-3.897682	Posenschätzung	-0.06703289
-4.198712	Positioning	-0.0840464
-3.897682	Positionsbestimmung	-0.0452806
-4.198712	Positionsrechnung	-0.07755557
-4.198712	Possession	-0.08341269
-4.198712	Posty-Soft	-0.04633292
-4.198712	Potentials	-0.06809099
-4.198712	Potenzial	-0.08478913
-4.198712	Potenziale	-0.04633292
-4.198712	Potenziale,	-0.08473416
-3.721591	Power	-0.3763365
-4.198712	PowerPoint	-0.04633292
-4.198712	Practicability	-0.08374344
-4.198712	Practice	-0.07311737
-4.198712	Practices	-0.07559487
-4.198712	Praktiken	-0.08039685
-4.198712	Praktischer	-0.08366077
-3.897682	Praxis	-0.02323704
-4.198712	Predictive	-0.08473416
-4.198712	PreeVision	-0.07311737
-3.897682	Preisfindung	-0.02802444
-4.198712	Prevention"	-0.08341269
-4.198712	Prindo.AI	-0.08341269
-3.897682	Private	-0.08454171
-4.198712	Pro	-0.04633292
-3.295622	Process	-0.1334305
-4.198712	Product	-0.08476165
-4.198712	Production	-0.08478913
-3.897682	Produkt	-0.1521977
-4.198712	Produkt-	-0.06372762
-4.198712	Produkt-Monitoring	-0.07755557
-4.198712	Produktdatenmanagement-Systems	-0.07755557
-3.721591	Produkten	-0.03547764
-4.198712	Produktionsanlagen	-0.04633292
-4.198712	Produktionsbereichs	-0.07209976
-4.198712	Produktionsbetrieb	-0.08294371
-4.198712	Produktionslinie	-0.08399133
-4.198712	Produktionslinien	-0.04633292
-4.198712	Produktionsmaschinen	-0.04633292
-4.198712	Produktionsversorgung	-0.07755557
-4.198712	Produktivbetrieb	-0.04633292
-4.198712	Produktlinie	-0.04633292
-3.897682	Produkts	-0.04630289
-4.198712	Produktstammdaten-Projekten	-0.07209976
-4.198712	Produktteilen	-0.08412899
-4.198712	Produktverbesserung	-0.07311737
-4.198712	Prof.	-0.08478913
-3.897682	Professoren	-0.1779645
-4.198712	Profilers	-0.07311737
-4.198712	Profilingkomponenten	-0.06372762
-3.596652	Prognose	-0.1700538
-4.198712	Prognosegenauigkeit	-0.07311737
-4.198712	Programm	-0.07559487
-4.198712	Programmieraufgaben	-0.08379854
-4.198712	Programmierkonzepte	-0.08476165
-3.596652	Programmiersprache	-0.08456919
-4.198712	Programmiersprachen	-0.07986899
-4.198712	Programmierumgebung	-0.07559487
-3.897682	Programmierung	-0.07308915
-3.353614	Programms	-0.1243093
-3.897682	Programmstatistik	-0.1521977
-4.198712	Programmtext	-0.04633292
-4.198712	Projekt-Dashboards	-0.07311737
-4.198712	Projektaktivitätsdaten	-0.08379854
-3.897682	Projektarbeit	-0.02323704
-4.198712	Projektcontrollings	-0.04633292
-3.721591	Projekten	-0.3379627
-3.721591	Projektes	-0.1038834
-4.198712	Projektfortschritts	-0.07755557
-4.198712	Projektionen	-0.07755557
-4.198712	Projektkoordination	-0.07311737
-3.295622	Projektmanagement	-0.08207129
-4.198712	Projektmanagement-Leitfaden	-0.07311737
-4.198712	Projektmanagement-Werkzeug	-0.04633292
-4.198712	Projektmanagement:	-0.04633292
-3.897682	Projektmanagements	-0.1521977
-4.198712	Projektmethodik	-0.08122899
-4.198712	Projektprozesses	-0.07209976
-4.198712	Projekts	-0.04633292
-4.198712	Projektseiten	-0.08379854
-4.198712	Projektverwaltungssoftware	-0.08478913
-4.198712	Projektzeiterfassung	-0.07311737
-4.198712	Projektübergreifenden	-0.08440417
-4.198712	ProleiT	-0.08415651
-3.721591	Proof	-0.3753733
-4.198712	Proof-of-Concepts	-0.04633292
-4.198712	Protoform	-0.04633292
-3.721591	Protokoll	-0.1011702
-4.198712	Protokollbäumen	-0.08258473
-3.596652	Prototyp	-0.04729281
-4.198712	Prototype	-0.08470667
-3.897682	Prototypen	-0.03624673
-4.198712	Prototypen.	-0.04633292
-4.198712	Prototypentwicklung	-0.07311737
-4.198712	Prototyping	-0.07424526
-4.198712	Prototyping-Phase	-0.08039685
-2.876493	Prototypische	-0.2437864
-4.198712	Prototypisches	-0.08473416
-3.420561	Prototyps	-0.3958009
-4.198712	Provider	-0.08385363
-4.198712	Providern	-0.07559487
-4.198712	Providing	-0.08465169
-3.897682	Provisionierung	-0.07303267
-4.198712	Provisionierungsmechanismen	-0.07311737
-4.198712	Provisioning	-0.08421156
-4.198712	Prozess	-0.08294371
-4.198712	Prozessablaufes	-0.07311737
-4.198712	Prozessanalyse	-0.06372762
-4.198712	Prozessautomatisierung	-0.08341269
-3.897682	Prozessdaten	-0.1857338
-3.596652	Prozesse	-0.05826443
-4.198712	Prozesseffizienz:	-0.08412899
-3.353614	Prozessen	-0.1251104
-4.198712	Prozessentwicklung	-0.06372762
-3.24447	Prozesses	-0.1484185
-4.198712	Prozessflusses	-0.04633292
-4.198712	Prozessinstanzen	-0.07424526
-3.897682	Prozesskette	-0.06803387
-3.721591	Prozessmanagement	-0.02535377
-4.198712	Prozessmodell	-0.04633292
-4.198712	Prozessmodells	-0.07311737
-3.897682	Prozessoptimierung	-0.05036817
-3.897682	Prozessverlaufs	-0.1695924
-4.198712	Präsentationen	-0.08122899
-4.198712	Präsenzunterricht	-0.08294371
-4.198712	Prüf-	-0.06372762
-4.198712	Prüfkatalogen	-0.04633292
-4.198712	Prüfpläne	-0.07311737
-3.596652	Prüfung	-0.2533226
-4.198712	Prüfungs-	-0.06372762
-3.596652	Public	-0.1343388
-4.198712	Punktbasiertes	-0.08470667
-4.198712	Punkte-Containers	-0.07311737
-4.198712	Punktlisten	-0.07311737
-4.198712	Punktwolke	-0.04633292
-3.721591	Punktwolken	-0.1011702
-4.198712	Push-Notifikationen	-0.07755557
-3.897682	Qlik	-0.1906264
-4.198712	QlikSense	-0.0845417
-4.198712	QlikView	-0.0845417
-4.198712	Quadrocopter-Landeplätzen	-0.08412899
-4.198712	Quadrocopter-Videoaufnahmen	-0.04633292
-3.897682	Quality	-0.08473417
-4.198712	Quality-of-Service-Unterstützung	-0.07755557
-3.897682	Qualität	-0.04615271
-4.198712	Qualitätskontrolle	-0.08478913
-4.198712	Qualitätskriterien	-0.04633292
-3.897682	Qualitätsmanagement	-0.08255711
-4.198712	Qualitätsmanagements	-0.07311737
-4.198712	Qualitätsmanagementsystems	-0.07755557
-4.198712	Qualitätsmerkmale,	-0.06809099
-4.198712	Qualitätsmessung	-0.08258473
-4.198712	Qualitätsprozesse	-0.07311737
-3.499742	Qualitätssicherung	-0.0649433
-3.897682	Qualitätssteigerung	-0.0807299
-3.897682	Qualitätsverbesserung	-0.1869275
-4.198712	Quantenkryptographie	-0.08341269
-4.198712	Quellcode	-0.07209976
-4.198712	Quelltexten	-0.07209976
-4.198712	Query	-0.08478913
-4.198712	Quiz-Anwendung	-0.07559487
-4.198712	RDF	-0.08478913
-4.198712	RDF-Graphen	-0.08412899
-3.897682	RELAX	-0.1906264
-4.198712	REST-Interface	-0.07311737
-4.198712	REST-Service	-0.04633292
-4.198712	REST-Webservice	-0.08377099
-3.897682	REST-basierten	-0.0846242
-3.897682	REST-ful	-0.08465169
-4.198712	RESTful	-0.08473416
-4.198712	RESTful-API-Design	-0.04633292
-4.198712	RFID	-0.06372762
-4.198712	RFID-Landmarken	-0.08476165
-4.198712	RRT*-Bahnplanung	-0.04633292
-4.198712	RTLS-basierten	-0.08478913
-4.198712	RZ-Umfeld	-0.04633292
-4.198712	Radioskopie	-0.04633292
-4.198712	Raft	-0.04633292
-2.968263	Rahmen	-0.7026284
-4.198712	Rahmenarchitektur	-0.07311737
-4.198712	Rahmenbedingungen	-0.08258473
-4.198712	Rahmenbedingungen.	-0.04633292
-4.198712	Rails	-0.04633292
-3.897682	Random	-0.1906264
-4.198712	Ranking-Algorithmus	-0.07311737
-4.198712	Rankings	-0.08122899
-4.198712	Raspberry	-0.08478913
-4.198712	Rasterbasierte	-0.08478913
-4.198712	Ratenkauf	-0.07209976
-4.198712	Ratingalgorithmus	-0.06372762
-4.198712	Raum	-0.04633292
-4.198712	Raumidentifikation	-0.07755557
-4.198712	Raumpartionierungs	-0.08476165
-4.198712	Rauschfreien	-0.08467918
-4.198712	Re-Zertifizierung	-0.08106268
-4.198712	React	-0.07311737
-4.198712	Real	-0.08478913
-3.897682	Real-Time	-0.08437667
-4.198712	Realisierbarkeit	-0.06809099
-2.347454	Realisierung	-0.8189845
-4.198712	Realistische	-0.06372762
-3.157319	Reality	-0.05907235
-4.198712	Realität	-0.04633292
-4.198712	Realtime-Analyse	-0.07311737
-4.198712	Realtime-Recommendation	-0.08443168
-4.198712	Rechenzentrum	-0.07209976
-4.198712	Rechenzentrums	-0.07209976
-4.198712	Rechenzentrumskommunikation	-0.07209976
-4.198712	Rechnungsprüfung	-0.06372762
-4.198712	Rechnungsverwaltung	-0.07311737
-4.198712	Rechte	-0.06372762
-4.198712	Rechtsberatung	-0.04633292
-3.897682	Recognition	-0.1902139
-3.897682	Recommender-Algorithmus	-0.1789822
-4.198712	Reconstruction	-0.08374344
-4.198712	Recurrent	-0.08467918
-4.198712	Redeployment	-0.06809099
-4.198712	Redesign	-0.07311737
-4.198712	Redesign-Projekt	-0.08385363
-4.198712	Redfish	-0.07559487
-4.198712	Reduzierung	-0.07209976
-4.198712	Reengineering	-0.07424526
-4.198712	Refactoring	-0.08478913
-4.198712	Referenzanwendung	-0.07311737
-3.897682	Referenzarchitektur	-0.1789822
-4.198712	Referenzmodell	-0.07311737
-4.198712	Reflection	-0.07755557
-4.198712	Regeleditors	-0.08476165
-4.198712	Regelsätze	-0.06372762
-4.198712	Regelungen	-0.07755557
-4.198712	Region-based	-0.08470667
-4.198712	Regionalnetze	-0.07209976
-3.897682	Registrierung	-0.04615271
-4.198712	Reifegradmodellen	-0.08294371
-4.198712	Reifegradmodells	-0.04633292
-4.198712	Reifegradmodels	-0.07311737
-4.198712	Reisekostenantragsprozesses	-0.07755557
-4.198712	Reisetouren	-0.08039685
-4.198712	Reiseveranstalter	-0.04633292
-4.198712	Rekeying	-0.0845417
-3.897682	Rekonstruktion	-0.05486715
-4.198712	Rekurrenten	-0.08476165
-4.198712	Rekurrenter	-0.08473416
-4.198712	Relevanz	-0.06372762
-4.198712	Remedy	-0.06372762
-3.596652	Rendering	-0.07770772
-4.198712	Report-Software	-0.07559487
-4.198712	Reporting	-0.08462419
-4.198712	Reportings	-0.07559487
-4.198712	Reports	-0.07755557
-4.198712	Repositories	-0.04633292
-4.198712	Repository	-0.08473416
-4.198712	Reproduzierbare	-0.08478913
-4.198712	Reputationssytems	-0.07311737
-4.198712	Requests	-0.04633292
-4.198712	Requirement	-0.08459669
-3.897682	Requirements	-0.08456921
-4.198712	Research	-0.04633292
-4.198712	Reservierungsprozesses	-0.06372762
-4.198712	Reshoring	-0.04633292
-4.198712	Residual	-0.08473416
-4.198712	Resources	-0.04633292
-4.198712	Ressourceneinsatzplanung	-0.08407393
-3.897682	Restrukturierung	-0.06121031
-4.198712	Retail	-0.08459669
-4.198712	Retail-Sektor	-0.04633292
-4.198712	Retrieval-Anwendung	-0.07986899
-4.198712	Retrievals	-0.07559487
-4.198712	Revision	-0.06372762
-4.198712	Rhodius	-0.04633292
-4.198712	Rich	-0.08473416
-4.198712	Richtungs-	-0.06372762
-3.897682	Richtungsinformationen	-0.1896633
-4.198712	Rights	-0.08429412
-4.198712	Ringsensors	-0.04633292
-3.596652	Risiken	-0.06817666
-3.897682	Risikoanalyse	-0.07531406
-3.897682	Risikomanagement	-0.1834204
-4.198712	Risikomanagement.	-0.04633292
-4.198712	Robert	-0.08476165
-3.24447	Roboter	-0.6933147
-4.198712	Roboter.	-0.04633292
-4.198712	Roboterhaustiers	-0.0845417
-4.198712	Robotern	-0.08478913
-3.897682	Roboters	-0.1521977
-3.897682	Robotersystem	-0.08473417
-4.198712	Robotersystems	-0.08476165
-3.721591	Robotic	-0.3762265
-3.897682	Robotik	-0.1521977
-3.897682	Robotikanwendungen	-0.1521977
-4.198712	Robuste	-0.08476165
-4.198712	Robustes	-0.08478913
-4.198712	Role-Profile-Pattern	-0.07755557
-4.198712	Rollenkonzept	-0.07755557
-4.198712	Rollenkonzepts	-0.06372762
-4.198712	Rosenberger	-0.08478913
-3.596652	Rosenheim	-0.7532813
-4.198712	Rosenheimer	-0.08478913
-4.198712	Rot-Grün-Farbsehschwächen	-0.04633292
-4.198712	Rotation	-0.06809099
-4.198712	Routenermittlung	-0.08476165
-3.897682	Routenoptimierung	-0.0559259
-4.198712	Routenplaner	-0.07311737
-4.198712	Routenzügen	-0.06372762
-4.198712	Ruby	-0.08462419
-4.198712	Ruby-on-Rails	-0.04633292
-4.198712	Rust	-0.06372762
-4.198712	Rust:	-0.08465169
-4.198712	Räumliche	-0.08478913
-4.198712	Röntgenanlagen	-0.04633292
-4.198712	S/4	-0.08473416
-4.198712	SAAS-Anwendung	-0.04633292
-2.680198	SAP	-0.09978564
-4.198712	SAP-Anbindung	-0.08385363
-4.198712	SAP-EWM-Systeme	-0.04633292
-4.198712	SAP-Systems	-0.07755557
-4.198712	SAP-Testautomatisierung	-0.07311737
-4.198712	SAP-Umfeld	-0.07209976
-4.198712	SCM-Prozesse)	-0.08451419
-4.198712	SE	-0.07986899
-4.198712	SFF-Dateien	-0.07755557
-4.198712	SLAM	-0.04633292
-4.198712	SLAM-Verfahren	-0.07311737
-4.198712	SMT	-0.08434915
-3.897682	SOA	-0.08426661
-4.198712	SOA-Referenzarchitektur	-0.08122899
-4.198712	SOM	-0.04633292
-4.198712	SPICE	-0.08467918
-4.198712	SPS	-0.08478913
-4.198712	SPS-Anwenderprogramme	-0.08122899
-3.596652	SQL	-0.1341463
-4.198712	SQL-Abfragen	-0.08122899
-4.198712	SQL-Queries	-0.07755557
-4.198712	SRM-	-0.06372762
-4.198712	SRM-Systeme	-0.06809099
-4.198712	SSIS-Paketen	-0.07311737
-4.198712	SSL	-0.04633292
-4.198712	SW-Entwicklungsprozessen	-0.04633292
-4.198712	SZ	-0.08478913
-4.198712	SaaS-Angebotes	-0.04633292
-4.198712	SaaS-Projekts	-0.08258473
-4.198712	Saiteninstrumenten	-0.04633292
-3.721591	Sammlung	-0.1137893
-3.897682	Sanierung	-0.06225373
-4.198712	Sanierungsprojekten	-0.04633292
-4.198712	Scenarios	-0.08434915
-4.198712	Scene	-0.08478913
-3.721591	Schaeffler	-0.1517106
-3.897682	Schaffung	-0.1789822
-4.198712	Schedulingsystems	-0.07755557
-4.198712	Schema	-0.08473416
-4.198712	Schemata	-0.04633292
-4.198712	Schlenk	-0.08415651
-4.198712	Schlüssels	-0.0845417
-3.420561	Schnittstelle	-0.1411209
-4.198712	Schnittstellen	-0.07755557
-4.198712	Schnittstellenkonzeption/-implementierung	-0.07424526
-4.198712	Schnittstellensystems	-0.08478913
-4.198712	Schrift	-0.04633292
-4.198712	Schrift,	-0.08478913
-4.198712	Schuhen	-0.07986899
-4.198712	Schulden	-0.08106268
-4.198712	Schutz	-0.08476165
-4.198712	Schwan-Stabilo	-0.08478913
-4.198712	Schwangerschaft,	-0.08478913
-4.198712	Schwarmalgorithmen	-0.08258473
-4.198712	Schwarmintelligenz	-0.04633292
-3.897682	Schwerpunkt	-0.0844867
-4.198712	Science	-0.04633292
-4.198712	Screening	-0.08467918
-3.596652	Scrum	-0.09036486
-4.198712	Scrum-Ansatzes	-0.08039685
-4.198712	Scrumpoker-Plugins	-0.07311737
